tree
version=v4
num_class=1
num_tree_per_iteration=1
label_index=0
max_feature_idx=15
objective=binary sigmoid:1
feature_names=Total_Orders Total_Sales Total_Quantity Total_Profit Avg_Discount Avg_Order_Value Avg_Profit Unique_Products Unique_Categories Avg_Ship_Days First_Order_Month Last_Order_Month Preferred_Quarter Recency Frequency Monetary
feature_infos=[1:13] [2.0249999999999999:15056.853999999999] [1:132] [-4108.6589000000004:6969.8609999999999] [0:0.80000000000000004] [2.0249999999999999:2301.2950000000001] [-684.77648333333343:753.89375000000007] [1:34] [1:3] [0.72727272727272729:181] [1:12] [1:12] [1:4] [1:1192] [1:13] [2.0249999999999999:15056.853999999999]
tree_sizes=657 779 3327 3421 3426 3431 3444 3332 3435 3429 3339 3415 3424 3430 3430 3448 3458 3438 3449 3454 3446 3455 3456 3456 3449 3464 3368 3450 3457 3454 3448 3464 3474 3355 3458 3384 3461 3460 3463 3472 3464 3473 3397 3446 3457 3473 3483 3477 3408 3476 3386 3475 3500 3397 3485 3483 3481 3478 3493 3491 3487 3487 3415 3494 3495 3494 3428 3505 3495 3503 3502 3500 3502 3505 3507 3424 3505 3499 3493 3499 3490 3504 3500 3509 3501 3449 3517 3452 3510 3509 3516 3517 3461 3522 3515 3507 3506 3516 3528 3506 3521 3529 3539 3489 3512 3532 3533 3531 3537 3530 3531 3546 3539 3479 3492 3548 3493 3539 3545 3542 3527 3560 3560 3556 3561 3547 3557 3526 3559 3538 3566 3547 3538 3557 3575 3567 3556 3571 3571 3563 3587 3566 3567 3580 3569 3565 3582 3577 3571 3566 3565 3580 3593 3595 3592 3590 3595 3605 3588 3579 3604 3596 3599 3603 3593 3601 3584 3612 3611 3613 3614 3614 3609 3613 3599 3617 3614 3601 3606 3609 3616 3630 3622 3621 3625 3625 3622 3617 3628 3629 3626 3626 3635 3629 3622 3630 3663 3626 3625 3623 3622 3631 3634 3637 3626 3629 3527 3399 3181 3068 2947 3063 2499 2722 2495 2389 2160 1941 1934 1947 1829 1824 1621 1720 1720 1616 1718 1607 1602 1387 1603 1269 1378 1271 1270 1043 1156 1054 1047 935 1045 922 937 937 830 934 832 828 825 820 716 714 713 713 710 717 715 717 714 605 601 491 489 491 487 490 487 489 488 484 490 487 376 376 377 377 378 373 376 377 375 376 376 376 376 376 377 377 377 377 377 376 367 377 366 376 375 375 366 376

Tree=0
num_leaves=5
num_cat=0
split_feature=13 13 1 1
split_gain=629.101 0.119228 5.68434e-14 5.68434e-14
threshold=178.00000000000003 193.50000000000003 2689.4680000000003 1570.2050000000002
decision_type=2 2 2 2
left_child=2 -2 -1 -3
right_child=1 3 -4 -5
leaf_value=-0.10000003263165658 0.091334913216158581 0.099999967368343434 -0.10000003263165658 0.099999967368343434
leaf_weight=50.305747970938683 4.1917614191770545 45.71573531627655 28.512644156813622 29.274111211299896
leaf_count=277 11 114 157 73
internal_value=-3.42632e-08 0.0995413 -0.1 0.1
internal_weight=158 79.1816 78.8184 74.9898
internal_count=632 198 434 187
is_linear=0
shrinkage=1


Tree=1
num_leaves=6
num_cat=0
split_feature=13 13 0 1 1
split_gain=569.228 0.108885 5.68434e-14 5.68434e-14 1.42109e-14
threshold=178.00000000000003 193.50000000000003 4.5000000000000009 616.35500000000013 4931.6730000000016
decision_type=2 2 2 2 2
left_child=3 -2 -3 -1 -4
right_child=1 2 4 -5 -6
leaf_value=-0.09524186922136231 0.086952459012276384 0.095241872192256244 0.095241872192256216 -0.09524186922136231 0.095241872192256244
leaf_weight=7.789705201983451 4.1830316931009284 48.401735246181488 22.000788748264316 70.831970557570457 4.4001577496528617
leaf_count=43 11 121 55 391 11
internal_value=-1.91267e-08 0.0948029 0.0952419 -0.0952419 0.0952419
internal_weight=157.607 78.9857 74.8027 78.6217 26.4009
internal_count=632 198 187 434 66
is_linear=0
shrinkage=0.05


Tree=2
num_leaves=31
num_cat=0
split_feature=0 0 1 10 11 5 3 4 9 11 9 2 7 11 5 5 3 3 3 3 9 4 1 3 3 9 10 7 3 9
split_gain=54.7415 12.142 10.0321 7.3639 5.3707 9.28125 8.56615 5.42773 5.08014 4.99937 4.78284 4.53088 5.63195 5.23785 3.71428 6.83672 3.69539 5.72814 3.19361 3.1211 3.01326 2.87024 2.65948 2.52864 5.72089 2.48615 2.43638 8.87435 1.99764 1.79117
threshold=3.5000000000000004 5.5000000000000009 2589.1310000000008 4.5000000000000009 10.500000000000002 180.22257142857148 477.76445000000007 0.16020833333333337 78.483333333333348 9.5000000000000018 36.519230769230781 46.500000000000007 7.5000000000000009 10.500000000000002 385.43690476190483 215.77629142857145 114.22540000000002 417.94895000000002 702.35320000000013 417.94895000000002 12.966666666666669 0.27361111111111119 872.08450000000005 299.4545 98.331050000000005 54.273809523809533 2.5000000000000004 8.5000000000000018 11.85355 51.035714285714292
decision_type=2 2 2 2 2 2 2 2 2 2 2 2 2 2 2 2 2 2 2 2 2 2 2 2 2 2 2 2 2 2
left_child=2 3 9 11 5 -3 8 14 22 28 19 12 20 26 15 -8 -15 -18 -7 -5 -2 -11 -6 24 29 -13 27 -14 -1 -22
right_child=1 4 -4 10 6 18 7 -9 -10 21 -12 25 13 16 -16 -17 17 -19 -20 -21 23 -23 -24 -25 -26 -27 -28 -29 -30 -31
leaf_value=0.087487169868441655 -0.031135828297432312 0.042716720281347757 -0.033499300656679873 -0.091131780312992502 -0.026303774853449514 -0.091131780312992461 -0.0037127760826917823 0.02961392949196744 -0.00085606025278057822 0.044920818538827845 0.010547798207875136 0.057480501244313788 0.048963368100208703 -0.091131780312992516 0.0045806869867282057 -0.091131780312992461 0.0084512022868799067 -0.091131780312992447 -0.013610413536780872 -0.01385629210159718 0.014552905670700229 0.00086356044240660276 -0.07420954654418091 0.064672007144584764 -0.042099838205478933 -0.0025125726611041873 0.041382582846116796 -0.069028448867528527 0.056391017005551318 0.064672007144584751
leaf_weight=8.9193075150251406 2.4134403318166759 5.411920487880705 3.7103894203901282 4.3173462152481061 3.3503263592720094 2.5184519588947296 4.1453894376754779 4.7967468351125708 3.2078758329153052 17.028314232826236 2.8480969816446304 5.8459495604038221 3.1034917831420916 3.0581202358007413 4.5426071882247916 4.8570144921541214 4.3620901852846146 2.158673107624054 2.8119132369756699 1.8737720549106596 3.4252041578292829 4.7218690365552893 21.414774298667908 3.7174102813005439 2.9531086087226868 2.450879231095314 3.2840087860822678 3.2754485607147217 12.2690062969923 3.7174102813005447
leaf_count=23 11 18 17 24 15 14 17 17 13 56 11 18 10 17 18 27 17 12 12 8 13 19 113 11 14 10 11 17 38 11
internal_value=-7.37011e-08 -0.0192689 0.0453793 -0.00199017 -0.0352598 -0.00340736 -0.0426476 -0.0160923 -0.0600599 0.0521954 -0.0430756 0.00649557 -0.00128537 -0.0195819 -0.0322784 -0.0508774 -0.0457831 -0.0245154 -0.0502371 -0.067744 0.0204111 0.0353562 -0.0677287 0.0294174 0.016436 0.0397586 0.00639132 -0.0116229 0.0694811 0.0406376
internal_weight=156.51 109.861 46.6489 52.8045 57.057 10.7423 46.3147 18.3418 27.973 42.9385 9.03922 43.7652 35.4684 19.2418 13.545 9.0024 9.57888 6.52076 5.33037 6.19112 16.2266 21.7502 24.7651 13.8131 10.0957 8.29683 9.66295 6.37894 21.1883 7.14261
internal_count=632 479 153 215 264 44 220 79 141 136 43 172 144 84 62 44 46 29 26 32 60 75 128 49 38 28 38 27 61 24
is_linear=0
shrinkage=0.05


Tree=3
num_leaves=31
num_cat=0
split_feature=13 4 7 7 11 5 7 11 13 9 5 3 4 10 11 8 9 5 3 3 10 9 3 9 1 4 5 3 4 5
split_gain=499.63 0.116916 0.0228916 0.0136162 0.00475665 0.00470086 0.00467275 0.00458137 0.0031429 0.00300102 0.00289512 0.00304798 0.00256583 0.00267581 0.00252316 0.00220477 0.00214637 0.00202888 0.00542027 0.00194387 0.00174761 0.00142967 0.0014143 0.00135194 0.0012257 0.00123022 0.00119392 0.000914899 0.000820853 0.000815082
threshold=178.00000000000003 0.36969696969696975 7.5000000000000009 9.5000000000000018 10.500000000000002 390.01793464052292 4.5000000000000009 7.5000000000000009 224.50000000000003 73.333333333333357 180.22257142857148 299.4545 0.070714285714285716 5.5000000000000009 10.500000000000002 2.5000000000000004 35.845849802371546 175.0551428571429 500.77330000000001 314.42745000000008 1.5000000000000002 50.342857142857149 12.830450000000001 11.27777777777778 872.08450000000005 0.088194444444444464 136.49065826330533 69.77085000000001 0.10801282051282053 199.0637785714286
decision_type=2 2 2 2 2 2 2 2 2 2 2 2 2 2 2 2 2 2 2 2 2 2 2 2 2 2 2 2 2 2
left_child=2 3 6 7 10 9 27 22 -5 17 26 -12 -8 21 -10 -9 -7 18 24 -16 -17 -14 -2 -19 -6 -26 -4 -1 -13 -11
right_child=1 -3 4 8 5 16 12 15 14 29 11 28 13 -15 19 20 -18 23 -20 -21 -22 -23 -24 -25 25 -27 -28 -29 -30 -31
leaf_value=-0.0930312438415455 0.087838515773691006 0.08183678199245939 -0.090339503455032277 0.091732301065632071 -0.089581741144718383 -0.089167152264461064 -0.092521654006642862 0.089249210343152627 0.089559882328983265 -0.090622136475860482 -0.088223276469980128 -0.089760234374014536 -0.090456149869958521 -0.088898823187946646 0.091515235967189731 0.090881147040779431 -0.091055175435580282 -0.089269089418767114 -0.091268839266915647 0.090308056559531419 0.089687107683662073 -0.091784517073833061 0.088970665654109576 -0.088036455657902524 -0.089599970605878709 -0.088298852553671037 -0.091883638156849551 -0.091703616111794159 -0.091140554719432817 -0.089323518402099122
leaf_weight=3.2501636743545559 5.5063948929309827 4.9177813827991477 2.6904582530260068 5.962236940860751 3.2225871086120668 2.5034841895103446 1.8036530911922444 21.733145236968994 5.9327459633350381 2.5146310627460471 2.8534372895956039 2.6863821446895599 6.8217345923185331 2.144158646464347 5.5641208291053781 4.3647464811801902 3.7754942178726196 2.6832260340452185 2.339161053299903 8.3230082094669324 10.286139845848082 2.8809591829776764 5.5277027785778046 13.011092081665991 2.1482241302728644 11.77331857383251 2.3411146253347397 2.1600992530584335 1.7979363203048704 2.3259638249874115
leaf_count=18 14 13 15 15 18 14 10 55 15 14 16 15 38 12 14 11 21 15 13 21 26 16 14 73 12 66 13 12 10 13
internal_value=-1.87675e-06 0.0892996 -0.0897523 0.089801 -0.0892632 -0.0890305 -0.0912577 0.0892981 0.0907258 -0.0888309 -0.0901342 -0.0895008 -0.0907648 -0.0904973 0.090423 0.0895688 -0.0903024 -0.0886703 -0.0890111 0.0907917 0.0900428 -0.0908506 0.0884057 -0.0882472 -0.088703 -0.0884996 -0.091058 -0.0925012 -0.0903137 -0.0899981
internal_weight=155.845 78.118 77.7273 73.2002 58.6665 46.2972 19.0608 47.4181 25.7821 40.0182 12.3693 7.33776 13.6505 11.8469 19.8199 36.384 6.27898 35.1776 19.4833 13.8871 14.6509 9.70269 11.0341 15.6943 17.1441 13.9215 5.03157 5.41026 4.48432 4.84059
internal_count=632 198 434 185 328 259 106 120 65 224 69 41 76 66 50 92 35 197 109 35 37 54 28 88 96 78 28 30 25 27
is_linear=0
shrinkage=0.05


Tree=4
num_leaves=31
num_cat=0
split_feature=13 3 14 14 11 1 11 5 13 9 3 10 7 2 9 9 7 7 5 3 9 11 1 6 1 11 1 3 14 1
split_gain=456.728 0.109765 0.0236585 0.011314 0.00522896 0.00500577 0.00491329 0.00406916 0.00364427 0.00255089 0.00225761 0.00224023 0.00299044 0.00294789 0.00248664 0.0019991 0.00170252 0.00165965 0.0015013 0.00457431 0.00162089 0.00144733 0.00128992 0.00127886 0.00102515 0.000888327 0.000868413 0.000781063 0.00123728 0.00135068
threshold=178.00000000000003 -314.1541499999999 3.5000000000000004 4.5000000000000009 9.5000000000000018 2589.1310000000008 10.500000000000002 390.01793464052292 220.50000000000003 70.487500000000011 11.85355 3.5000000000000004 8.5000000000000018 46.500000000000007 27.418831168831172 35.845849802371546 6.5000000000000009 7.5000000000000009 208.02425000000002 500.77330000000001 11.27777777777778 10.500000000000002 2408.4835000000007 22.471302976190479 3869.3380000000002 9.5000000000000018 1305.8560000000002 -18.115649999999999 5.5000000000000009 886.96800000000007
decision_type=2 2 2 2 2 2 2 2 2 2 2 2 2 2 2 2 2 2 2 2 2 2 2 2 2 2 2 2 2 2
left_child=2 -2 5 4 10 25 11 9 -5 16 -3 12 -4 22 -13 -9 -8 -6 19 27 -20 -10 -14 -23 -15 -1 -11 -18 -29 -30
right_child=1 3 6 8 17 -7 7 15 21 26 -12 14 13 24 -16 -17 18 -19 20 -21 -22 23 -24 -25 -26 -27 -28 28 29 -31
leaf_value=-0.089768297018042731 0.07829849668996304 0.084611806460535816 -0.088352573280219934 0.088208787917474607 0.086155388610859529 -0.086358043992469324 -0.086639935765846887 -0.085866224457422077 0.086276451842681415 -0.087408802423304177 0.085691881644387513 -0.084329031358094719 -0.086462825999239781 -0.088510949304439868 -0.086983823642908409 -0.087661893082855602 -0.084648423860055083 0.087172724656691722 -0.086164790884618689 -0.087449000558583345 -0.08465413584200901 0.087810991190417631 -0.084764924121305915 0.086808923145701655 -0.086813461973304917 -0.088663298668005819 -0.086106869799440627 -0.086167499414621415 -0.08645569703095915 -0.084956031441186186
leaf_weight=2.5094499439001066 4.4760517477989188 7.7549701035022762 3.3884112983942023 6.2974872291088131 18.747784644365314 2.3020029664039603 2.6586610972881308 2.6486984789371482 7.4250961244106302 1.9554658234119404 12.863276004791258 1.7533754408359521 2.6549365967512113 1.7851452678442004 1.7749464958906171 3.7364750951528549 3.6882639527320853 5.0993425250053397 2.1216378062963477 2.8452837169170371 10.889491930603979 4.7180497050285348 1.9330779612064359 9.7922332882881147 1.7726377695798872 6.6087855994701385 3.7124954015016556 4.4190931320190527 1.7714059948921193 9.8512087613344175
leaf_count=14 12 20 19 16 48 13 15 15 19 11 33 10 15 10 10 21 21 13 12 16 62 12 11 25 10 37 21 25 10 56
internal_value=-1.88909e-06 0.0858979 -0.0863417 0.0863658 0.0858688 -0.0884414 -0.0859749 -0.0857376 0.0871486 -0.0855661 0.0852856 -0.086767 -0.0871043 -0.086585 -0.0856645 -0.086917 -0.0854194 0.0863729 -0.0853282 -0.0855748 -0.0849005 0.0868442 -0.0857474 0.0871347 -0.0876652 -0.0889674 -0.086556 -0.0853045 -0.0854554 -0.0851846
internal_weight=153.955 77.1743 76.781 72.6982 44.4654 11.4202 65.3607 50.2982 28.2329 43.913 20.6182 15.0625 11.5342 8.1458 3.52832 6.38517 38.245 23.8471 35.5864 22.5753 13.0111 21.9354 4.58801 14.5103 3.55778 9.11824 5.66796 19.73 16.0417 11.6226
internal_count=632 198 434 186 114 64 370 285 72 249 53 85 65 46 20 36 217 61 202 128 74 56 26 37 20 51 32 112 91 66
is_linear=0
shrinkage=0.05


Tree=5
num_leaves=31
num_cat=0
split_feature=13 4 14 14 1 11 5 1 13 11 9 9 5 3 7 4 4 9 3 5 3 3 14 14 9 1 5 1 12 5
split_gain=418.927 0.108682 0.0181523 0.00931919 0.00383417 0.00378934 0.00313998 0.00288528 0.00269205 0.00249511 0.00197052 0.00153496 0.00145678 0.00206016 0.0013129 0.0012872 0.0012617 0.00121757 0.00115068 0.00101736 0.00375488 0.00090357 0.000896433 0.000751782 0.000696745 0.000666843 0.000626131 0.000595643 0.000415176 0.000400367
threshold=178.00000000000003 0.36969696969696975 3.5000000000000004 5.5000000000000009 2589.1310000000008 10.500000000000002 390.01793464052292 2627.8670000000006 241.50000000000003 9.5000000000000018 70.487500000000011 35.845849802371546 211.39107575757581 417.94895000000002 6.5000000000000009 0.27361111111111119 0.04580419580419582 45.958333333333336 11.85355 208.02425000000002 500.77330000000001 92.559750000000022 5.5000000000000009 4.5000000000000009 11.27777777777778 1305.8560000000002 192.67273737373739 756.10400000000016 3.5000000000000004 347.98647692307696
decision_type=2 2 2 2 2 2 2 2 2 2 2 2 2 2 2 2 2 2 2 2 2 2 2 2 2 2 2 2 2 2
left_child=2 3 4 7 15 12 10 9 -5 18 14 -8 17 22 -7 -1 -16 21 -2 20 27 -4 -14 28 -21 -12 -10 -18 -11 -15
right_child=1 -3 5 8 -6 6 11 -9 26 23 25 -13 13 29 16 -17 19 -19 -20 24 -22 -23 -24 -25 -26 -27 -28 -29 -30 -31
leaf_value=-0.08603551235725751 0.081998754193080337 0.075604978246647622 -0.082831784065724848 0.085279419964598716 -0.083349991542977619 -0.083600203420169619 -0.082917541526614721 0.084049845050520877 0.083617146546452498 0.082944440835626285 -0.084279531796842402 -0.084503043688801724 -0.083111786377949817 -0.083546558533403745 -0.08374950817918568 -0.08472144342693419 -0.083119878615856374 -0.084913651925861422 0.082783665458678268 -0.082931467608908405 -0.084582850696377526 -0.084306486959533342 -0.081539692238462899 0.083785271310476361 -0.081849591799297905 -0.083130126883573907 0.084368647034871638 -0.082255731305926019 0.083402985172981947 -0.084591566577224706
leaf_weight=6.3656405210494977 6.8697105348110226 4.7864983528852454 1.9103759229183177 5.8328011631965664 2.2667078226804724 2.618564471602439 2.6067935377359381 6.5693136751651755 6.1689772903919202 12.672658383846287 1.9273672252893437 3.6836557984352112 1.9141467660665514 1.9186681509017947 1.7463358193635929 2.6350162625312805 2.262836813926703 3.3394902795553207 14.577875167131422 1.7378161549568165 2.1067581921815863 2.2764565795660019 1.7230064272880552 5.4008988440036765 10.360447078943251 3.6546076685190201 5.0330249965190887 16.792008966207504 8.0862283408641815 1.7548638135194776
leaf_count=36 18 13 11 15 13 15 15 17 16 33 11 21 11 11 10 15 13 19 38 10 12 13 10 14 60 21 13 97 21 10
internal_value=-1.92145e-06 0.0828981 -0.0833366 0.0833883 -0.0851879 -0.0830124 -0.0828023 0.0830676 0.0844084 0.082932 -0.0826503 -0.083846 -0.0837133 -0.0832106 -0.0825203 -0.0856508 -0.0824395 -0.0842016 0.0825323 -0.0823707 -0.0825798 -0.0836336 -0.082367 0.0832598 -0.082005 -0.083527 0.0839548 -0.0823584 0.0831231 -0.0840458
internal_weight=151.6 75.998 75.6016 71.2115 11.2674 64.3342 49.4972 54.1767 17.0348 47.6074 43.2067 6.29045 14.837 7.31069 37.6248 9.00066 35.0062 7.52632 21.4476 33.2599 21.1616 4.18683 3.63715 26.1598 12.0983 5.58197 11.202 19.0548 20.7589 3.67353
internal_count=632 198 434 185 64 370 285 141 44 124 249 36 85 42 217 51 202 43 56 192 122 24 21 68 70 32 29 110 54 21
is_linear=0
shrinkage=0.05


Tree=6
num_leaves=31
num_cat=0
split_feature=13 3 0 0 1 1 13 5 5 9 3 7 0 4 9 4 7 12 12 9 6 1 9 7 4 4 1 0 9 0
split_gain=385.404 0.106823 0.0140572 0.00655045 0.00296562 0.00257883 0.00223419 0.00213238 0.00239551 0.00224241 0.00168482 0.00127378 0.00108563 0.00117938 0.00101501 0.000991794 0.000978325 0.000924465 0.00074466 0.0013336 0.000721096 0.000646983 0.000633518 0.0005962 0.000591027 0.000562385 0.000532692 0.000922668 0.000500219 0.000636591
threshold=178.00000000000003 -314.1541499999999 3.5000000000000004 4.5000000000000009 2589.1310000000008 2484.4420000000005 220.50000000000003 390.01793464052292 184.73779090909093 57.672619047619058 507.62380000000002 7.5000000000000009 5.5000000000000009 0.14833333333333337 36.726190476190489 0.27361111111111119 8.5000000000000018 3.5000000000000004 1.5000000000000002 25.712500000000002 -20.433354761904756 2021.4910000000002 75.58750000000002 2.5000000000000004 0.25916666666666671 0.10801282051282053 872.08450000000005 5.5000000000000009 40.088888888888896 5.5000000000000009
decision_type=2 2 2 2 2 2 2 2 2 2 2 2 2 2 2 2 2 2 2 2 2 2 2 2 2 2 2 2 2 2
left_child=2 -2 4 5 15 17 -5 8 9 10 11 -4 13 -10 -9 -1 -11 20 19 -13 -3 22 -18 -22 -25 -16 -8 -28 -20 -30
right_child=1 3 7 6 -6 -7 26 14 12 16 -12 18 -14 -15 25 -17 21 -19 28 -21 23 -23 -24 24 -26 -27 27 -29 29 -31
leaf_value=-0.083064835112222721 0.072618692067286453 0.079492564679367314 -0.080912962379923722 0.082152466250016043 -0.080682964644804067 0.08149944157616705 0.081572813754967555 -0.080552868989205842 -0.081139762793490167 -0.082359612803328527 -0.081686542261561287 -0.081637436308099637 -0.079663988193565655 -0.079855931088940679 -0.081112977193051217 -0.081901727663261606 -0.080026328171567407 0.0807216985323196 -0.079605098753734893 -0.079810581880394693 0.079621506404604969 -0.081754060544183521 -0.081328797052590163 0.080163166414131015 0.080845828798663519 -0.082256163559779827 0.080469668950551132 0.081229068986782033 -0.081000402164038768 -0.07969307246786389
leaf_weight=6.2661185413598997 4.3363839685916892 4.4916796684265128 4.7996016293764212 6.1088917851448086 2.2255868315696707 4.1817000508308402 4.1847889125347164 3.9298503994941694 3.0893970876932171 1.7312742769718159 2.068956494331359 1.7219814658165002 16.29351107776165 4.2494457066059113 2.2319529056549072 2.5905620604753494 2.0424668043851857 6.8052603900432578 9.1614110171794874 2.3793021440505981 4.1219758093357148 1.897652596235275 1.7196592688560484 19.574234604835514 3.7833686769008628 2.0769076198339462 6.4142086505889919 10.62641456723213 1.7147871851921075 2.037686213850975
leaf_count=36 12 12 28 16 13 11 11 23 18 10 12 10 96 25 13 15 12 18 54 14 11 11 10 52 10 12 17 28 10 12
internal_value=-1.99599e-06 0.0802349 -0.0806722 0.0807048 -0.0823146 0.0803198 0.0813099 -0.0803839 -0.0802714 -0.0805584 -0.0803229 -0.0801936 -0.0798914 -0.0803964 -0.081134 -0.0827246 -0.0813195 0.0801925 -0.0799907 -0.0805776 0.0800799 -0.0810014 -0.0806217 0.0801759 0.0802737 -0.081664 0.0810674 0.0809432 -0.0798043 -0.0802905
internal_weight=148.857 74.6289 74.2281 70.2925 11.0823 42.9582 27.3343 63.1458 54.9071 31.2748 23.8837 21.8148 23.6324 7.33884 8.23871 8.85668 7.39105 38.7765 17.0152 4.10128 31.9713 5.65978 3.76213 27.4796 23.3576 4.30886 21.2254 17.0406 12.9139 3.75247
internal_count=632 198 434 186 64 114 72 370 322 183 140 128 139 43 48 51 43 103 100 24 85 33 22 73 62 25 56 45 76 22
is_linear=0
shrinkage=0.05


Tree=7
num_leaves=31
num_cat=0
split_feature=0 0 1 2 7 9 9 2 12 1 6 5 1 0 6 2 2 1 4 5 6 6 3 12 5 8 3 3 6 4
split_gain=35.2007 7.8481 6.80946 4.42542 5.2796 3.74879 2.87669 3.56229 2.51588 4.21006 2.48947 6.0058 5.84179 3.78441 4.48579 3.8662 2.86297 2.28732 2.19469 2.07892 3.73169 1.99873 5.08927 4.07052 2.13931 1.73588 2.07525 1.56539 3.36714 1.95062
threshold=3.5000000000000004 5.5000000000000009 2589.1310000000008 46.500000000000007 8.5000000000000018 19.735000000000003 77.916666666666671 53.500000000000007 3.5000000000000004 610.35500000000013 72.067450000000022 252.19904761904766 3987.5797000000007 6.5000000000000009 32.55954666666667 39.500000000000007 47.500000000000007 872.08450000000005 0.24907407407407409 205.59701538461542 21.120403333333336 21.697606060606066 114.22540000000002 1.5000000000000002 281.43431666666669 1.5000000000000002 -75.728949999999983 299.4545 16.720970000000005 0.15857142857142861
decision_type=2 2 2 2 2 2 2 2 2 2 2 2 2 2 2 2 2 2 2 2 2 2 2 2 2 2 2 2 2 2
left_child=2 3 8 4 5 -2 10 -8 25 -10 11 12 13 14 15 17 -12 -3 -15 20 -5 22 23 -6 -23 -1 -27 28 29 -7
right_child=1 6 -4 19 21 27 7 -9 9 -11 16 -13 -14 18 -16 -17 -18 -19 -20 -21 -22 24 -24 -25 -26 26 -28 -29 -30 -31
leaf_value=0.070773189584926496 -0.032316103121657551 -0.0022796103166132782 -0.029384755242323313 -0.0032123416498558138 0.012869034533330829 0.044099218261811984 -0.03633163781106942 0.042875460298054752 0.050593247380401711 -0.019151113393868106 0.021075122274334279 -0.077406780454327417 0.02289997405304876 -0.063323131598587185 -0.077734679377869875 0.030362779971081028 -0.037259064935515909 -0.077290655069077951 -0.014222707476641087 -0.00072063042543383908 0.077999555288995992 -0.078103688732162502 0.035545914830117993 -0.077351468244083413 -0.02176522575597041 0.07220976250654286 0.035761967303706121 0.038491237925195196 -0.039193387479355274 0.00082113688773501146
leaf_weight=7.6997366398572948 5.1629237085580852 2.2930564731359535 3.4818464964628211 2.2937698364257795 1.9496359974145869 4.7059940993785876 2.768943026661872 2.9127798080444336 4.9119995236396772 3.8673597872257233 4.1191469728946668 7.9715338796377173 4.6533266156911841 12.302823916077612 2.3330844789743415 4.8468012511730194 4.2980284690856934 1.8252407014369962 2.7924021929502478 3.7223849147558212 3.690115749835968 3.6782715171575537 3.0702806562185287 3.484848365187645 3.109451487660408 4.9446301162242916 18.582143381237984 5.40497763454914 3.0912021547555915 5.8279868364334106
leaf_count=22 26 10 17 10 8 16 14 10 16 18 16 48 18 70 14 18 22 11 13 16 10 22 11 21 15 14 66 19 16 25
internal_value=-2.09517e-06 -0.0160197 0.0376809 -0.00162954 -0.00906499 0.005471 -0.0293465 0.0042745 0.0435178 0.0198704 -0.0333735 -0.0386936 -0.0287537 -0.0378606 -0.0159761 9.6043e-05 -0.00871183 -0.0355247 -0.0542403 0.0286183 0.046869 -0.0320613 -0.0159125 -0.0449846 -0.0522951 0.0501663 0.0434222 0.0157227 0.00669067 0.0201554
internal_weight=145.797 102.309 43.4877 49.1918 39.4856 24.1931 53.1172 5.68172 40.0059 8.77936 47.4354 39.0183 31.0467 26.3934 11.2982 8.9651 8.41718 4.1183 15.0952 9.70627 5.98389 15.2925 8.50477 5.43448 6.78772 31.2265 23.5268 19.0302 13.6252 10.534
internal_count=632 479 153 215 179 102 264 24 136 34 240 202 154 136 53 39 38 21 83 36 20 77 40 29 37 102 80 76 57 41
is_linear=0
shrinkage=0.05


Tree=8
num_leaves=31
num_cat=0
split_feature=13 4 14 1 14 1 7 6 11 1 9 9 11 13 4 3 3 14 11 6 1 6 1 7 9 7 7 10 6 5
split_gain=344.974 0.128461 0.0375269 0.0149551 0.00992489 0.00801061 0.00669178 0.00470268 0.00440898 0.00390762 0.00354615 0.00315637 0.00302057 0.00243512 0.00213043 0.00203526 0.00146791 0.00325616 0.00140318 0.00131977 0.00227044 0.00129134 0.0012361 0.00122496 0.00121767 0.00119444 0.0011758 0.00114544 0.00114313 0.00112614
threshold=178.00000000000003 0.36969696969696975 3.5000000000000004 2760.3370000000004 4.5000000000000009 2589.1310000000008 8.5000000000000018 96.354888888888908 9.5000000000000018 872.08450000000005 18.950000000000003 75.896825396825406 10.500000000000002 263.00000000000006 0.14833333333333337 12.830450000000001 -18.115649999999999 5.5000000000000009 9.5000000000000018 21.697606060606066 2064.0190000000002 10.220587500000002 616.35500000000013 6.5000000000000009 48.122377622377634 11.500000000000002 24.500000000000004 2.5000000000000004 20.811029411764711 153.87261111111115
decision_type=2 2 2 2 2 2 2 2 2 2 2 2 2 2 2 2 2 2 2 2 2 2 2 2 2 2 2 2 2 2
left_child=2 3 5 4 8 18 10 11 15 -6 -4 16 -12 -11 -5 -2 -8 19 -1 21 -21 -18 -10 -14 -15 -9 -19 -24 -13 -20
right_child=1 -3 6 14 9 -7 7 25 22 13 12 28 23 24 -16 -17 17 26 29 20 -22 -23 27 -25 -26 -27 -28 -29 -30 -31
leaf_value=-0.081908702136646458 0.075399281126108941 0.068892749290863822 -0.076699723584252394 0.07974202282218619 0.079355897143699811 -0.077484987058356866 -0.075777327451638329 -0.077568442904897339 0.076770749804449062 0.078772556257592594 -0.079582840414136102 -0.07850546110009049 -0.078797588611781141 0.076546190806357287 0.078480179648687073 0.076556567042237678 -0.077277679407981303 -0.076201989348104571 -0.081138621512031842 -0.075814789312275643 -0.078120789692853396 -0.079197562818310252 0.077056077179016691 -0.077285057626640716 0.077781994309106067 -0.079329478240584589 -0.077424305943467886 0.078015893233971498 -0.076881030978456916 -0.079803280873311344
leaf_weight=2.4183697998523694 5.7327174544334438 4.5354342907667151 3.7894340455532065 6.3726513981819135 5.2275188565254238 2.1615799963474265 6.6781504899263302 1.9947576671838754 8.0134801566600817 3.7109717130661002 3.8941081464290601 2.6863632649183264 2.0179783254861832 3.632026404142378 7.0406257510185242 11.263275325298308 1.8210969120264118 22.434105873107914 3.2634578049182892 2.2820852547883987 2.0054159313440323 1.687394931912422 5.8454876244068128 3.9761436730623245 4.4178747236728668 1.8613286465406416 2.1565843671560279 6.638452559709549 1.8145443648099897 3.0586784034967422
leaf_count=14 16 13 23 17 14 13 41 12 22 10 23 16 12 10 19 31 11 137 19 14 12 10 16 24 12 11 13 18 11 18
internal_value=-4.60888e-06 0.0770399 -0.0775081 0.0775841 0.0772159 -0.0802104 -0.0770259 -0.0767449 0.0767617 0.0782185 -0.0780002 -0.0765968 -0.0784986 0.0777129 0.0790797 0.0761662 -0.0764523 -0.0765915 -0.0808844 -0.0774819 -0.0768934 -0.078201 0.0772554 -0.0777943 0.0772244 -0.0784185 -0.0763092 0.0775665 -0.0778506 -0.0804926
internal_weight=144.432 72.4305 72.0016 67.8951 54.4818 10.9021 61.0995 47.4218 37.4934 16.9884 13.6777 43.5657 9.88823 11.7609 13.4133 16.996 39.0648 32.3867 8.74051 7.79599 4.2875 3.50849 20.4974 5.99412 8.0499 3.85609 24.5907 12.4839 4.50091 6.32214
internal_count=632 198 434 185 149 64 370 288 103 46 82 265 59 32 36 47 238 197 51 47 26 21 56 36 22 23 150 34 27 37
is_linear=0
shrinkage=0.05


Tree=9
num_leaves=31
num_cat=0
split_feature=13 4 0 0 1 1 7 6 0 3 9 9 13 13 6 3 4 9 12 3 12 2 0 3 7 6 1 7 1 1
split_gain=319.22 0.122979 0.0295645 0.0119403 0.007054 0.00629805 0.00530625 0.00371997 0.00341905 0.00298676 0.00281268 0.00249913 0.00216995 0.00207264 0.00230255 0.00351583 0.00155259 0.00154482 0.00128959 0.00132135 0.0012467 0.00118492 0.00518106 0.00129924 0.000940029 0.000901538 0.000840859 0.000666759 0.000781434 0.00058221
threshold=178.00000000000003 0.36969696969696975 3.5000000000000004 5.5000000000000009 2865.0050000000006 2589.1310000000008 8.5000000000000018 96.354888888888908 3.5000000000000004 251.66365000000005 18.950000000000003 75.896825396825406 241.50000000000003 29.500000000000004 16.720970000000005 325.13820000000004 0.15505050505050508 45.958333333333336 3.5000000000000004 12.830450000000001 3.5000000000000004 44.500000000000007 5.5000000000000009 26.546849999999989 11.500000000000002 20.811029411764711 992.03350000000012 24.500000000000004 2865.0050000000006 2497.2963000000004
decision_type=2 2 2 2 2 2 2 2 2 2 2 2 2 2 2 2 2 2 2 2 2 2 2 2 2 2 2 2 2 2
left_child=2 3 5 4 8 20 10 11 18 17 -4 21 -5 -12 -15 -16 -14 -10 19 -2 -1 23 -23 -8 -9 -13 -25 28 29 -24
right_child=1 -3 6 12 -6 -7 7 24 9 -11 13 25 16 14 15 -17 -18 -19 -20 -21 -22 22 27 26 -26 -27 -28 -29 -30 -31
leaf_value=-0.078947171934170668 0.073841682830586078 0.066928599486290111 -0.074729540986306117 0.077520365628890531 0.076909928909608433 -0.075435733918666426 -0.073363079899528005 -0.075513362465018385 0.076538463178448701 0.074679435890861484 -0.075188814383939262 -0.076354546939283674 0.077066630370635436 -0.077962300726588774 -0.074931978194747034 -0.077878298036542171 0.075815736410369011 0.075381028529232938 0.075270341967164645 0.074684200881548798 -0.077697227295200122 -0.076820158102331129 -0.074503616956292498 -0.075050979579134813 -0.077093672720730755 -0.074894634115757711 -0.074136640461968398 -0.075271805582785137 -0.074078977159087664 -0.075536887827913804
leaf_weight=5.39726674556732 7.0109741091728273 4.4375946074724189 3.6972063928842536 5.5009305477142361 5.1030609905719748 2.1105756014585486 3.7825683504343024 1.9477806240320199 5.8081433475017565 7.44794937968254 2.74572044610977 2.6254754662513724 4.0185258388519269 2.6720802932977676 2.5788270235061646 1.6670800000429151 6.4816016256809235 5.723930686712265 5.3619316816329947 13.841082245111464 3.1645482182502747 2.6367993503809002 5.768339276313788 3.7091789692640287 1.8205732852220533 1.7706479877233503 7.8067194372415543 2.2641364187002173 10.351614341139792 1.7852226197719572
leaf_count=32 20 13 23 15 14 13 24 12 16 21 17 16 11 16 16 10 18 16 15 39 19 16 36 23 11 11 49 14 65 11
internal_value=-4.65326e-06 0.0749869 -0.0754585 0.0755263 0.0751478 -0.0778821 -0.0750247 -0.0747712 0.0749488 0.0754599 -0.0759024 -0.0746377 0.0767159 -0.0763511 -0.0768124 -0.0760888 0.0762945 0.075964 0.0745788 0.0744009 -0.0784852 -0.0745075 -0.0747359 -0.0741671 -0.0762768 -0.0757665 -0.0744311 -0.0744634 -0.0743611 -0.0747478
internal_weight=141.038 70.7357 70.3024 66.2981 50.2971 10.6724 59.63 46.2691 45.194 18.98 13.3609 42.5007 16.0011 9.66371 6.91799 4.24591 10.5001 11.5321 26.214 20.8521 8.56181 38.1046 22.8061 15.2985 3.76835 4.39612 11.5159 20.1693 17.9052 7.55356
internal_count=632 198 434 185 141 64 370 288 127 53 82 265 44 59 42 26 29 32 74 59 51 238 142 96 23 27 72 126 112 47
is_linear=0
shrinkage=0.05


Tree=10
num_leaves=31
num_cat=0
split_feature=14 11 1 10 14 3 2 7 5 4 11 4 14 3 7 1 5 5 6 1 1 12 2 12 2 6 1 1 5 5
split_gain=27.5313 6.28269 5.49901 4.05295 3.71266 4.60508 3.3213 5.53769 3.84772 2.8093 2.76799 2.56181 2.34195 2.23745 2.2329 4.01984 2.03929 3.85564 2.026 2.01356 3.46031 1.98282 2.82804 2.02312 2.31648 1.57097 1.54375 4.64001 2.74901 1.93934
threshold=3.5000000000000004 10.500000000000002 2589.1310000000008 4.5000000000000009 5.5000000000000009 477.76445000000007 46.500000000000007 7.5000000000000009 169.68830769230775 0.16020833333333337 9.5000000000000018 0.21380952380952384 6.5000000000000009 114.22540000000002 11.500000000000002 1919.8490000000002 385.43690476190483 215.77629142857145 10.80602674825175 3122.9870000000005 2567.3330000000001 2.5000000000000004 36.500000000000007 1.5000000000000002 39.500000000000007 17.857854166666669 539.59500000000014 1057.7370000000003 153.87261111111115 43.232857142857149
decision_type=2 2 2 2 2 2 2 2 2 2 2 2 2 2 2 2 2 2 2 2 2 2 2 2 2 2 2 2 2 2
left_child=2 3 10 12 6 14 7 11 -8 16 -1 18 21 -9 -6 25 17 -7 -3 20 -15 23 -23 24 -2 -16 29 28 -28 -12
right_child=1 4 -4 -5 5 9 8 13 -10 -11 26 -13 -14 19 15 -17 -18 -19 -20 -21 -22 22 -24 -25 -26 -27 27 -29 -30 -31
leaf_value=0.053590606427542042 0.02543479899522004 0.056515880829328027 -0.027428055877043851 -0.053368558276361583 -0.066446414046196028 -0.0018790383185604013 0.058687614171012349 -0.072136184393418387 -0.02665167645528398 0.023051189474277478 0.0052253594482369542 -0.04420649218499275 -0.033965268799798824 -0.036231482967568278 -0.025952715435028723 -0.055293020074952418 0.0044318150294378614 -0.072106443009993734 0.003840757672274096 -0.073026526260516852 0.047620147460401656 -0.041834833614345417 0.020570909372659027 0.046345551422972565 -0.031614964386300744 0.024953023823664919 0.0043772122611078308 0.044187561271007772 -0.075452311760796004 0.057087167718791076
leaf_weight=18.429630503058434 6.7944602668285494 2.772355601191526 3.3154938966035834 2.7025144994258872 8.7514250874519366 3.6808670312166232 3.4272481054067603 3.859939977526663 2.1490438580513 4.2564455717802039 2.5410304367542285 1.7929474264383305 2.6128199547529212 4.1947687119245529 3.4179408997297278 9.494939982891081 4.0743132680654526 4.1670252084732056 5.3445051908493042 1.7235855460166929 1.7410099059343336 3.1048319190740576 4.3714249134063721 6.87350308895111 2.410653680562973 2.72295843064785 3.2124773710966092 5.6918575018644333 1.6233903765678404 6.2028851211071014
leaf_count=61 27 9 17 16 55 17 11 25 11 17 11 10 14 23 18 57 18 27 24 11 6 17 18 24 13 11 14 20 10 20
internal_value=-4.71872e-06 -0.0145978 0.0343075 0.00492615 -0.0229395 -0.0325021 -0.00857509 -0.0175199 0.0257988 -0.0118189 0.0397366 0.00988406 0.0109466 -0.0410949 -0.0462235 -0.0349046 -0.0242681 -0.039168 0.0218322 -0.0254516 -0.0116371 0.0159285 -0.00534572 0.0258206 0.0104945 -0.00338042 0.0264879 0.013591 -0.0224214 0.0420158
internal_weight=137.458 96.4415 41.0168 28.8702 67.5713 40.5659 27.0054 21.4291 5.57629 16.1787 37.7013 9.90981 26.1677 11.5193 24.3873 15.6358 11.9222 7.84789 8.11686 7.65936 5.93578 23.5549 7.47626 16.0786 9.20511 6.1409 19.2716 10.5277 4.83587 8.74392
internal_count=632 479 153 129 350 220 130 108 22 79 136 43 113 65 141 86 62 44 33 40 29 99 35 64 40 29 75 44 24 31
is_linear=0
shrinkage=0.05


Tree=11
num_leaves=31
num_cat=0
split_feature=13 4 0 1 0 1 11 5 7 11 0 2 10 9 0 11 6 5 4 5 5 3 9 9 5 0 8 9 1 3
split_gain=287.644 0.125256 0.0441516 0.0217815 0.0132827 0.0093959 0.00834908 0.00554622 0.00585949 0.00486791 0.0043842 0.00376988 0.00362349 0.00337514 0.00284405 0.00283009 0.00257024 0.0023266 0.00232358 0.00227764 0.00205142 0.0035326 0.00160801 0.00160396 0.00132937 0.00126017 0.00121864 0.00108831 0.00104952 0.000990112
threshold=178.00000000000003 0.36969696969696975 3.5000000000000004 2760.3370000000004 3.5000000000000004 2589.1310000000008 10.500000000000002 407.95165151515158 6.5000000000000009 9.5000000000000018 5.5000000000000009 46.500000000000007 3.5000000000000004 36.726190476190489 4.5000000000000009 9.5000000000000018 24.504548214285716 127.13533333333336 0.14833333333333337 158.28817878787882 179.1764666666667 500.77330000000001 27.418831168831172 75.896825396825406 167.88748571428576 5.5000000000000009 2.5000000000000004 71.402777777777786 583.99900000000014 12.830450000000001
decision_type=2 2 2 2 2 2 2 2 2 2 2 2 2 2 2 2 2 2 2 2 2 2 2 2 2 2 2 2 2 2
left_child=2 3 5 4 15 9 12 8 -8 -1 11 26 14 -9 -4 29 -5 -12 -18 -11 21 23 -14 -10 -16 -26 -6 -22 -17 -2
right_child=1 -3 6 16 10 -7 7 13 20 19 17 -13 22 -15 24 28 18 -19 -20 -21 27 -23 -24 -25 25 -27 -28 -29 -30 -31
leaf_value=-0.07866338417183398 0.070736728919977038 0.064203120161859292 -0.075434439420115684 0.076023038309564597 0.072901309330455785 -0.072949391510473513 -0.074166478725179605 -0.072365652410030443 -0.071711462824305405 -0.076775273029706326 0.075151148557181219 0.07160583879331997 -0.070881307478287456 -0.074950919873582406 -0.074410961300922646 0.071881033887391907 0.075233281091079324 0.073410114635316867 0.073642817061193924 -0.074792395428408376 -0.071193219867448573 -0.074057579688398753 -0.07316735610859923 -0.073315853653590557 -0.073871351382045355 -0.072282742527295843 0.07382828579364524 -0.072394162295165654 0.072832148594266927 0.071614591789507506
leaf_weight=2.3553420007228834 5.3176372349262264 4.2732660919427863 2.5917907506227476 3.6001466810703269 7.5906818509101921 2.0362854599952689 2.7074906527996054 2.4754414409399024 15.610799729824071 3.6261195838451385 4.2764670550823203 4.0521159768104544 1.5092347264289849 2.5764627307653427 2.7157536298036575 6.111883729696272 4.6444322168827039 3.4806837737560272 4.5423393547534943 2.4112271815538406 14.551653265953066 2.0685635805129996 1.5688422322273252 1.7304958254098881 2.3769876509904861 2.6290767937898636 6.6530945003032684 2.1674398332834235 5.5200523138046265 8.1114587187767011
leaf_count=14 16 13 16 10 22 13 17 16 102 22 12 12 10 16 17 18 13 10 13 15 96 13 10 11 15 17 19 14 16 24
internal_value=-7.50692e-06 0.0724908 -0.073004 0.073045 0.0725833 -0.0759962 -0.0724592 -0.0721257 -0.071923 -0.0767355 0.0733738 0.0729515 -0.073552 -0.0736841 -0.0740013 0.0717615 0.0748907 0.0743699 0.0744469 -0.0759833 -0.0717549 -0.0721045 -0.0720465 -0.0718716 -0.0735203 -0.073037 0.0733343 -0.0713489 0.0723324 0.071267
internal_weight=135.883 68.1743 67.709 63.901 51.1141 10.429 57.28 43.8883 38.8364 8.39269 26.053 18.2959 13.3917 5.0519 10.3136 25.061 12.7869 7.75715 9.18677 6.03735 36.129 19.4099 3.07808 17.3413 7.72182 5.00606 14.2438 16.7191 11.6319 13.4291
internal_count=632 198 434 185 149 64 370 285 253 51 75 53 85 32 65 74 36 22 26 37 236 126 20 113 49 32 41 110 34 40
is_linear=0
shrinkage=0.05


Tree=12
num_leaves=31
num_cat=0
split_feature=13 4 0 1 0 1 11 5 7 11 0 2 10 9 11 0 6 5 4 5 5 7 0 6 9 5 0 8 6 9
split_gain=267.368 0.122144 0.0352798 0.0174605 0.0106929 0.00749059 0.00670442 0.00445689 0.0047072 0.00384782 0.00351406 0.00303147 0.0029106 0.00269993 0.00228046 0.0022725 0.00206096 0.00186399 0.00185622 0.0018095 0.0016511 0.00241322 0.00258634 0.00188542 0.00129643 0.0010652 0.00101317 0.000975247 0.000916847 0.000877683
threshold=178.00000000000003 0.36969696969696975 3.5000000000000004 2760.3370000000004 3.5000000000000004 2589.1310000000008 10.500000000000002 407.95165151515158 6.5000000000000009 9.5000000000000018 5.5000000000000009 46.500000000000007 3.5000000000000004 36.726190476190489 9.5000000000000018 4.5000000000000009 24.504548214285716 127.13533333333336 0.14833333333333337 158.28817878787882 179.1764666666667 13.500000000000002 6.5000000000000009 25.757468475073317 27.418831168831172 167.88748571428576 5.5000000000000009 2.5000000000000004 3.8594349999999995 71.402777777777786
decision_type=2 2 2 2 2 2 2 2 2 2 2 2 2 2 2 2 2 2 2 2 2 2 2 2 2 2 2 2 2 2
left_child=2 3 5 4 14 9 12 8 -8 -1 11 27 15 -9 -2 -4 -5 -12 -18 -11 21 28 -23 -24 -14 -17 -27 -6 -10 -22
right_child=1 -3 6 16 10 -7 7 13 20 19 17 -13 24 -15 -16 25 18 -19 -20 -21 29 22 23 -25 -26 26 -28 -29 -30 -31
leaf_value=-0.076495162295192431 0.069804204461861169 0.062580802563234825 -0.073590121193460534 0.074123876475679237 0.071293617504377987 -0.071334851945065933 -0.072442180318590482 -0.07080782391205602 -0.069287585355279221 -0.074798463769157983 0.073334171560601957 0.070113868493092077 -0.069452727157835459 -0.073152190325399519 0.070774675158156858 -0.072664281959371899 0.073406013886668675 0.071754595468120339 0.071965294920479886 -0.073008205775333207 -0.069739320790893053 -0.072736719775698649 -0.070205452956562053 -0.072071933878747219 -0.071535477800525285 -0.072175651176345099 -0.070731073980025205 0.072134476170728032 -0.07034264392556297 -0.070833510311815326
leaf_weight=2.3023375421762449 13.03497287631035 4.1675340086221686 2.5255855619907361 3.5100493729114524 7.3791231215000206 1.9796889126300801 2.6351709663867942 2.4051887243986121 2.9158293604850787 3.5380827188491821 4.1660978198051444 3.9344087839126578 1.4644010365009301 2.5095198601484299 11.301916629076002 2.6438050419092178 4.5250649452209455 3.385356217622757 4.4189379215240479 2.3482410609722137 14.123133406043054 2.0252911150455457 5.0579731613397598 1.8471194356679914 1.5254978388547895 2.3128171116113663 2.5543099343776703 6.4734047651290894 7.0083849728107452 2.105992153286933
leaf_count=14 40 13 16 10 22 13 17 16 20 22 12 12 10 16 34 17 13 10 13 15 96 13 34 12 10 15 17 19 47 14
internal_value=-7.51888e-06 0.0708673 -0.0713867 0.0714231 0.0710034 -0.0740949 -0.070892 -0.0705886 -0.0704041 -0.0747621 0.0717223 0.0713387 -0.0718847 -0.0720049 0.0702549 -0.0722927 0.0730971 0.072626 0.0726942 -0.0740843 -0.070251 -0.0705693 -0.0711656 -0.0707047 -0.0705154 -0.0718564 -0.0714175 0.0716866 -0.0700327 -0.0698813
internal_weight=132.125 66.2969 65.8284 62.1293 49.6753 10.1684 55.66 42.6336 37.7189 8.18866 25.3384 17.7869 13.0264 4.91471 24.3369 10.0365 12.4541 7.55145 8.944 5.88632 35.0837 18.8546 8.93038 6.90509 2.9899 7.51093 4.86713 13.8525 9.92421 16.2291
internal_count=632 198 434 185 149 64 370 285 253 51 75 53 85 32 74 65 36 22 26 37 236 126 59 46 20 49 32 41 67 110
is_linear=0
shrinkage=0.05


Tree=13
num_leaves=31
num_cat=0
split_feature=13 13 0 1 0 1 0 5 2 7 5 9 5 3 12 0 3 9 10 1 7 3 3 1 3 1 13 2 0 10
split_gain=248.919 0.117218 0.0283444 0.01326 0.00833874 0.0060054 0.00490705 0.00448641 0.00384402 0.00465287 0.00296482 0.00278774 0.00226907 0.00235926 0.00190302 0.00180866 0.00146791 0.0013827 0.00126306 0.00123876 0.00104179 0.000917769 0.000833285 0.000794912 0.000762536 0.000755854 0.000630604 0.000537158 0.000710865 0.000510083
threshold=178.00000000000003 193.50000000000003 3.5000000000000004 2760.3370000000004 3.5000000000000004 2589.1310000000008 5.5000000000000009 418.14168461538469 46.500000000000007 8.5000000000000018 127.13533333333336 65.666666666666671 180.22257142857148 500.77330000000001 3.5000000000000004 5.5000000000000009 34.159900000000007 75.896825396825406 4.5000000000000009 4173.4510000000018 7.5000000000000009 128.34600000000003 96.789150000000021 872.08450000000005 329.06905000000006 660.64300000000003 48.500000000000007 38.500000000000007 6.5000000000000009 2.5000000000000004
decision_type=2 2 2 2 2 2 2 2 2 2 2 2 2 2 2 2 2 2 2 2 2 2 2 2 2 2 2 2 2 2
left_child=2 -2 5 4 21 14 8 12 9 11 15 18 13 17 -1 25 -11 23 20 -5 22 -3 -4 -8 26 -6 -18 -25 -29 -14
right_child=1 3 6 19 10 -7 7 -9 -10 16 -12 -13 29 -15 -16 -17 24 -19 -20 -21 -22 -23 -24 27 -26 -27 -28 28 -30 -31
leaf_value=-0.073566802114712157 0.06045741221229195 0.068788339858848996 -0.071616100076554612 0.07211482699281449 0.070850501188572029 -0.069865950392001247 -0.069777860571983139 -0.070902874074219482 -0.071781730234345573 -0.067998461259946005 0.06972592776765156 -0.072129785315380793 -0.068707326234080143 -0.07086593779985266 -0.071963574354509799 0.071687646376989364 -0.069228522440615961 -0.070478697584491254 -0.069025411806895032 0.071020968286743785 -0.069316678221434502 0.069460960685907847 -0.070229438335263614 -0.067892422711827202 -0.068794268499916489 0.069802242986349392 -0.070537054219255255 -0.06982955552806859 -0.068591714511232513 -0.06811316920131498
leaf_weight=5.0541500300168973 3.4763721972703925 20.04588615894318 1.9876951277256063 4.75719967484474 3.6512839794158953 1.9217151701450346 1.9165690243244231 3.0121183246374121 2.7595565617084494 2.6797956675291044 12.675335437059401 2.1559457629919052 7.898227930068968 2.1105753481388083 2.9204948395490646 4.051597386598587 1.8910442292690279 1.4959132373332966 2.0282744318246841 5.676785796880722 1.45775531232357 6.7890295386314383 2.3814240396022797 1.8324759751558284 3.0233307778835297 3.2506014704704285 1.7943742722272871 1.4733569324016569 5.4505617022514343 6.6567010283470154
leaf_count=32 11 63 13 14 11 13 13 20 18 19 39 14 55 14 19 12 13 10 14 17 10 21 16 13 21 10 12 10 38 47
internal_value=-7.55692e-06 0.0693873 -0.0699151 0.0698971 0.0695616 -0.072375 -0.0694643 -0.0690667 -0.0700357 -0.0697873 0.0702466 -0.0705372 -0.0688749 -0.0693227 -0.0729797 0.0708491 -0.0689877 -0.0690551 -0.0701 0.0715197 -0.0704741 0.0689585 -0.0708603 -0.0688555 -0.0693828 0.0703568 -0.0698656 -0.0686537 -0.0688551 -0.0684356
internal_weight=128.276 64.3741 63.9021 60.8977 50.4637 9.89636 54.0057 31.8465 22.1592 19.3996 23.6288 10.0111 28.8344 14.2795 7.97464 10.9535 9.38854 12.1689 7.85515 10.434 5.82687 26.8349 4.36912 10.673 6.70875 6.90189 3.68542 8.75639 6.92392 14.5549
internal_count=632 198 434 187 156 64 370 220 150 132 72 67 200 98 51 33 65 84 53 31 39 84 29 74 46 21 25 61 48 102
is_linear=0
shrinkage=0.05


Tree=14
num_leaves=31
num_cat=0
split_feature=13 4 0 0 15 15 11 0 5 7 11 13 2 10 11 0 5 4 5 7 0 6 5 0 5 8 6 15 5 0
split_gain=232.081 0.12353 0.022902 0.0117134 0.00600092 0.00484297 0.00447864 0.00321407 0.00293664 0.00308616 0.00252352 0.00219151 0.0020783 0.00192869 0.00154549 0.00150144 0.0012053 0.00120398 0.00107792 0.00162104 0.00170777 0.00125358 0.00070426 0.000666495 0.000650681 0.00063313 0.000614186 0.00059064 0.000503331 0.000481409
threshold=178.00000000000003 0.36969696969696975 3.5000000000000004 5.5000000000000009 2865.0050000000006 2589.1310000000008 10.500000000000002 3.5000000000000004 407.95165151515158 6.5000000000000009 9.5000000000000018 241.50000000000003 46.500000000000007 3.5000000000000004 9.5000000000000018 4.5000000000000009 158.28817878787882 0.15505050505050508 179.1764666666667 13.500000000000002 6.5000000000000009 25.757468475073317 167.88748571428576 5.5000000000000009 654.84511904761916 2.5000000000000004 3.8594349999999995 583.99900000000014 130.7534666666667 5.5000000000000009
decision_type=2 2 2 2 2 2 2 2 2 2 2 2 2 2 2 2 2 2 2 2 2 2 2 2 2 2 2 2 2 2
left_child=2 3 5 4 7 10 13 14 9 -8 -1 -5 25 15 -2 -4 -12 -13 19 26 -21 -22 -17 -24 -10 28 -11 -16 -9 -20
right_child=1 -3 6 11 -6 -7 8 12 24 18 16 17 -14 -15 27 22 -18 -19 29 20 21 -23 23 -25 -26 -27 -28 -29 -30 -31
leaf_value=-0.072803396384505933 0.067242229466790704 0.059463383858281219 -0.070421252591779601 0.070703073261658617 0.069925334762652405 -0.068525371988798822 -0.069448230931832972 0.068969162128908149 -0.069481409149280263 -0.066801534785973268 -0.07139732934800011 0.070119851417613094 0.067490095431722907 -0.067844981415835809 0.06771176447334841 -0.069647134211371253 -0.069894091394494137 0.068954392489241123 -0.067800892078018302 -0.069703331322439194 -0.067582025933281373 -0.069150570071833728 -0.069235962684713534 -0.068028340646485108 -0.068195090472820283 0.069205394066837109 -0.067693291189809657 0.068458232848958231 0.068114989014299007 -0.067150533229222251
leaf_weight=2.1875797659158689 12.22975865006447 3.9383472949266425 2.3871626555919629 4.968398004770278 4.5658058524131766 1.8628374338150022 2.484409660100936 3.1896136999130267 3.2135127931833258 2.7324792891740817 3.3503235429525375 3.606187552213667 3.6920984983444205 2.8092457801103583 5.5751039087772352 2.4942832291126251 2.2150795310735703 5.7482466697692871 3.7872966825962058 1.9108972251415233 4.7493593245744705 1.7406270951032636 2.1798456460237503 2.4010312706232071 1.4164835810661314 6.1015880107879639 6.5815620124340057 5.0506355464458466 3.7550429105758667 11.441690117120741
leaf_count=14 40 13 16 15 14 13 17 10 22 20 22 11 12 20 18 17 15 18 27 13 34 12 15 17 10 19 47 16 12 83
internal_value=-7.60043e-06 0.0680347 -0.0685718 0.0686119 0.0682089 -0.0708146 -0.0681597 0.068011 -0.0679037 -0.0677489 -0.0713646 0.0698544 0.0685374 -0.0689954 0.0676255 -0.0693369 -0.070799 0.0694037 -0.0676207 -0.0678859 -0.0683895 -0.0680027 -0.0689711 -0.068603 -0.0690879 0.0688338 -0.0674317 0.0680666 0.0685073 -0.0673123
internal_weight=124.367 62.4208 61.9457 58.4825 44.1596 9.61582 52.3299 39.5938 40.0583 35.4283 7.75298 14.3228 16.7383 12.2716 22.8555 9.46232 5.5654 9.35443 32.9439 17.7149 8.40088 6.48999 7.07516 4.58088 4.63 13.0462 9.31404 10.6257 6.94466 15.229
internal_count=632 198 434 185 141 64 370 127 285 253 51 44 53 85 74 65 37 29 236 126 59 46 49 32 32 41 67 34 22 110
is_linear=0
shrinkage=0.05


Tree=15
num_leaves=31
num_cat=0
split_feature=13 13 0 15 0 15 11 5 11 5 11 10 9 5 3 2 0 0 6 4 5 4 12 9 0 5 0 5 9 15
split_gain=216.668 0.124957 0.0185675 0.00865403 0.00535683 0.00392064 0.00364753 0.00239564 0.00202917 0.00202375 0.00181801 0.00156792 0.00149444 0.00128265 0.00123354 0.00131803 0.00121731 0.00115573 0.00112089 0.00138087 0.000972992 0.000962142 0.000824829 0.000735763 0.000692502 0.000638152 0.000611811 0.000572297 0.000558857 0.000527372
threshold=178.00000000000003 193.50000000000003 3.5000000000000004 2760.3370000000004 3.5000000000000004 2589.1310000000008 10.500000000000002 407.95165151515158 9.5000000000000018 127.13533333333336 9.5000000000000018 3.5000000000000004 36.726190476190489 184.73779090909093 500.77330000000001 23.500000000000004 4.5000000000000009 5.5000000000000009 24.504548214285716 0.15505050505050508 158.28817878787882 0.21941176470588239 1.5000000000000002 27.418831168831172 5.5000000000000009 279.64115277777779 6.5000000000000009 167.88748571428576 77.916666666666671 660.64300000000003
decision_type=2 2 2 2 2 2 2 2 2 2 2 2 2 2 2 2 2 2 2 2 2 2 2 2 2 2 2 2 2 2
left_child=2 -2 5 4 10 8 11 13 -1 17 -3 16 -9 14 15 -8 -4 29 -5 -20 -10 -12 26 -13 25 -15 -17 -18 -29 -6
right_child=1 3 6 18 9 -7 7 12 20 -11 21 23 -14 24 -16 22 27 -19 19 -21 -22 -23 -24 -25 -26 -27 -28 28 -30 -31
leaf_value=-0.071202314262262853 0.057308571498908105 0.066166620281073743 -0.069035129394537334 0.069452584488191596 0.068155363648839964 -0.067298433710705666 -0.067945671294332155 -0.066880941044597172 -0.069924188045074762 0.067179212766078453 0.066742845548306173 -0.065834010633058077 -0.068706981354261357 -0.066303592793681074 -0.068089202316667638 -0.067778646260731212 -0.06832794258705259 0.068827189474935907 0.068992140682556824 0.067542459762268067 -0.068552777594876865 0.0677728427046079 -0.066356542058094645 -0.067479812373655593 -0.066038377519370015 -0.067607205840555018 -0.066540114449713791 -0.066987272338250664 -0.068191205097936566 0.067251964731077654
leaf_weight=2.1264805346727353 3.2843545526266089 13.619094252586367 2.3151641339063627 3.2225469350814802 3.4342993795871752 1.8034647703170774 1.9703046381473601 2.1865380555391303 3.2523456662893295 11.890828520059584 8.4362584054470044 1.3265955001115792 2.298092395067215 2.4198009520769115 1.8396395593881596 2.1004253327846523 2.4172704368829727 3.8150002360343933 3.5165016651153564 3.0826607644557953 2.1472196578979492 3.1005899310111991 11.448530748486517 1.39127442240715 11.062280237674711 1.5338634401559827 1.8982369154691694 3.0190639197826385 1.4160032272338865 3.0503097772598267
leaf_count=14 11 46 16 10 11 13 14 16 22 39 28 10 16 18 13 15 17 12 11 10 15 10 85 10 83 11 14 22 10 10
internal_value=-7.70099e-06 0.0667927 -0.0673425 0.0673375 0.0670573 -0.0693923 -0.0669649 -0.06673 -0.0698941 0.0676236 0.0665578 -0.0677312 -0.0678167 -0.0665878 -0.0668579 -0.0667278 -0.0680439 0.0681367 0.0686882 0.068315 -0.0693788 0.0670197 -0.0665725 -0.0666765 -0.0662414 -0.0668093 -0.0671907 -0.067709 -0.0673717 0.0677304
internal_weight=120.425 60.4524 59.9726 57.1681 47.3464 9.32951 50.6431 38.7577 7.52605 22.1904 25.1559 11.8854 4.48463 34.2731 19.2571 17.4175 9.1675 10.2996 9.82171 6.59916 5.39957 11.5368 15.4472 2.71787 15.0159 3.95366 3.99866 6.85234 4.43507 6.48461
internal_count=632 198 434 187 156 64 370 285 51 72 84 85 32 253 141 128 65 33 31 21 37 38 114 20 112 29 29 49 32 21
is_linear=0
shrinkage=0.05


Tree=16
num_leaves=31
num_cat=0
split_feature=13 3 14 14 1 1 14 6 14 2 7 2 9 13 12 9 3 4 3 4 1 10 6 6 4 4 3 7 7 6
split_gain=202.526 0.129108 0.0151139 0.00725664 0.00348374 0.00318737 0.00268172 0.00312613 0.00236764 0.0021601 0.00263579 0.00168776 0.0015604 0.00147176 0.00101504 0.000975185 0.000840679 0.00119428 0.000823471 0.000759832 0.000753924 0.000693605 0.000675947 0.000646572 0.000611608 0.000819317 0.000605366 0.000586151 0.000568416 0.000519105
threshold=178.00000000000003 -314.1541499999999 3.5000000000000004 5.5000000000000009 2865.0050000000006 2589.1310000000008 5.5000000000000009 96.354888888888908 3.5000000000000004 46.500000000000007 8.5000000000000018 46.500000000000007 65.666666666666671 233.50000000000003 3.5000000000000004 75.58750000000002 500.77330000000001 0.14031250000000003 34.159900000000007 0.15505050505050508 872.08450000000005 4.5000000000000009 46.454431111111113 21.697606060606066 0.17416666666666669 0.097916666666666693 128.34600000000003 11.500000000000002 7.5000000000000009 13.769092500000001
decision_type=2 2 2 2 2 2 2 2 2 2 2 2 2 2 2 2 2 2 2 2 2 2 2 2 2 2 2 2 2 2
left_child=2 -2 5 4 8 14 9 15 26 10 12 24 21 -5 -1 16 20 22 -12 -15 -8 28 -18 -20 25 -10 -3 -22 29 -4
right_child=1 3 6 13 -6 -7 7 -9 11 -11 18 -13 -14 19 -16 -17 17 -19 23 -21 27 -23 -24 -25 -26 -27 -28 -29 -30 -31
leaf_value=-0.068999251257775632 0.056251867460597016 0.065307677589290153 -0.067619387349511548 0.068055863903586616 0.067456427079179135 -0.066172585308688081 -0.066111565276567405 -0.067491551645513764 0.066848764238656433 -0.067680065220567895 -0.064700626199780328 0.065287303861291612 -0.067951435825271161 0.067462710646483903 -0.067774333444313772 -0.066374393697709519 -0.066132885688486229 -0.067018569136942749 -0.066644909603654753 0.066531181369180514 -0.064620441640781165 -0.065524427450137993 -0.065046146584289866 -0.065479953298571592 0.067052295151421568 0.065832689765628338 0.065886378520136998 -0.065260299541313946 -0.065753466517129988 -0.066462609245539706
leaf_weight=4.6314981579780561 3.4390092194080344 16.971692055463794 1.6774182319641169 4.0531911253929129 3.3770224452018729 1.7439500093460081 1.739184319973005 1.9502011239528645 3.6198220849037153 2.5193298608064643 2.4172323793172819 3.4483074545860282 1.9700139313936231 3.6886348128318769 2.6640625596046448 2.4266276061534873 2.2717045396566382 1.5086758732795713 1.6262447983026502 5.3848338723182678 5.8469078540801993 1.8364420086145399 3.8658572137355804 4.4510417282581329 3.9471558630466452 4.3902669250965118 6.1590504944324485 9.2281828820705396 1.3210255801677702 2.2990889996290207
leaf_count=32 12 59 12 13 11 13 13 14 12 18 19 12 14 12 19 18 17 11 12 18 46 14 30 34 13 15 21 71 10 17
internal_value=-7.80885e-06 0.0656506 -0.0662145 0.0662378 0.0659166 -0.0680929 -0.0658677 -0.0655586 0.0657816 -0.0663107 -0.0661147 0.0662618 -0.0667058 0.0672637 -0.068552 -0.0654184 -0.0653235 -0.0657582 -0.0654812 0.0669099 -0.0651258 -0.0663618 -0.0654484 -0.0657917 0.0665429 0.0662919 0.0654618 -0.0650121 -0.0666521 -0.0669506
internal_weight=116.474 58.479 57.9947 55.04 41.9133 9.03951 48.9552 28.8373 38.5363 20.1178 17.5985 15.4056 9.10399 13.1267 7.29556 26.8871 24.4605 7.64624 8.49452 9.07347 16.8143 7.13397 6.13756 6.07729 11.9572 8.01009 23.1307 15.0751 5.29753 3.97651
internal_count=632 198 434 186 143 64 370 220 132 150 132 52 67 43 51 206 188 58 65 30 130 53 47 46 40 27 80 117 39 29
is_linear=0
shrinkage=0.05


Tree=17
num_leaves=31
num_cat=0
split_feature=13 13 0 1 11 1 11 0 5 7 11 10 4 0 0 9 5 7 0 5 7 1 9 9 2 5 0 7 0 12
split_gain=189.516 0.133931 0.0123587 0.00596804 0.00362712 0.00260283 0.0024733 0.00209068 0.00161974 0.00173423 0.00136272 0.00106247 0.00100013 0.000824294 0.000808912 0.000776994 0.000717103 0.000975067 0.00101292 0.000661618 0.000625497 0.00061571 0.00058472 0.000503707 0.000485717 0.000392493 0.000384577 0.000377264 0.00034781 0.000323346
threshold=178.00000000000003 193.50000000000003 3.5000000000000004 2760.3370000000004 9.5000000000000018 2589.1310000000008 10.500000000000002 5.5000000000000009 390.01793464052292 6.5000000000000009 9.5000000000000018 3.5000000000000004 0.22153846153846157 4.5000000000000009 3.5000000000000004 36.726190476190489 224.92614285714288 11.500000000000002 6.5000000000000009 158.28817878787882 4.5000000000000009 4173.4510000000018 12.117647058823531 27.418831168831172 33.500000000000007 167.88748571428576 5.5000000000000009 21.500000000000004 3.5000000000000004 2.5000000000000004
decision_type=2 2 2 2 2 2 2 2 2 2 2 2 2 2 2 2 2 2 2 2 2 2 2 2 2 2 2 2 2 2
left_child=2 -2 5 4 14 10 11 12 9 -8 -1 13 20 -4 -3 -10 17 -11 -19 -12 -6 -5 -18 -13 28 -15 -27 -20 -22 -30
right_child=1 3 6 21 7 -7 8 -9 15 16 19 23 -14 25 -16 -17 22 18 27 -21 24 -23 -24 -25 -26 26 -28 -29 29 -31
leaf_value=-0.068428839274887368 0.05447785599386519 0.064178781972070803 -0.066617666109097348 0.066786073445605235 0.064454998879372158 -0.065137043995495719 -0.065864008363153009 0.066304792810765442 -0.064787616996212757 -0.06422228720233028 -0.067351358026437796 -0.063887547676817577 0.06579003475369874 -0.066019752372201784 0.064910032057619638 -0.066083964572351411 -0.064965015281809396 -0.065820048428043038 -0.06448772401163165 -0.066183001180396092 0.064912236871688442 0.065965185546298669 -0.063848778829456193 -0.065297427005356151 0.064547585014852693 -0.065705476712004648 -0.064740990941284562 -0.065322321582625978 0.065175574190686758 0.065905396605605432
leaf_weight=2.0011677592992765 3.091257616877555 12.695784986019136 2.1702077910304052 4.207837373018263 4.7422976493835547 1.6845959872007368 2.252676501870158 4.4509197175502768 2.040851727128028 9.8785957843065315 3.0526546686887741 1.2354873269796365 4.3800549507141104 2.2627996280789375 5.3864399790763846 2.6656241193413734 1.4085341840982417 2.3803036138415328 6.8247786536812765 2.0092395842075348 3.6884390711784345 4.9969147741794586 7.0222665518522263 1.3002069145441053 2.7934252619743338 1.975716136395931 2.1673538982868195 1.6891729980707166 3.1454533636569977 2.9326115250587463
leaf_count=14 11 46 16 14 17 13 17 15 16 79 22 10 15 17 19 20 11 18 54 15 13 17 57 10 10 15 17 13 11 10
internal_value=-7.9447e-06 0.0645966 -0.0651767 0.0651822 0.064941 -0.0669031 -0.0648572 0.0653177 -0.0646567 -0.0645273 -0.0673243 -0.0655096 0.0651151 -0.0657755 0.0643966 -0.0655218 -0.0644242 -0.064582 -0.0649082 -0.0668876 0.0649442 0.0663404 -0.0640353 -0.0646105 0.065129 -0.0654902 -0.0652009 -0.0646533 0.0652953 0.0655277
internal_weight=112.534 56.5114 56.0222 53.4202 44.2154 8.74766 47.2746 26.1332 36.1628 31.4563 7.06306 11.1118 21.6823 8.57608 18.0822 4.70648 29.2037 20.7729 10.8943 5.06189 17.3022 9.20475 8.4308 2.53569 12.5599 6.40587 4.14307 8.51395 9.7665 6.07806
internal_count=632 198 434 187 156 64 370 91 285 249 51 85 76 65 65 36 232 164 85 37 61 31 68 20 44 49 32 67 34 21
is_linear=0
shrinkage=0.05


Tree=18
num_leaves=31
num_cat=0
split_feature=13 4 0 15 0 15 11 5 7 11 0 2 10 11 7 6 5 4 5 3 12 5 13 5 6 2 5 13 0 15
split_gain=177.523 0.136997 0.0101315 0.00572157 0.00328742 0.00213167 0.00203419 0.0013391 0.00140801 0.00110995 0.00108702 0.00101967 0.000875459 0.000721279 0.000692455 0.000639067 0.000540569 0.000535397 0.000495875 0.000889928 0.000510865 0.000461313 0.000435066 0.000364812 0.000338381 0.000546647 0.0004565 0.000320281 0.000463542 0.000306411
threshold=178.00000000000003 0.36969696969696975 3.5000000000000004 2760.3370000000004 3.5000000000000004 2589.1310000000008 10.500000000000002 407.95165151515158 6.5000000000000009 9.5000000000000018 5.5000000000000009 46.500000000000007 4.5000000000000009 9.5000000000000018 8.5000000000000018 24.504548214285716 158.28817878787882 0.14833333333333337 179.1764666666667 500.77330000000001 2.5000000000000004 127.13533333333336 14.500000000000002 182.54095000000004 22.836925000000004 48.500000000000007 182.54095000000004 43.500000000000007 5.5000000000000009 583.99900000000014
decision_type=2 2 2 2 2 2 2 2 2 2 2 2 2 2 2 2 2 2 2 2 2 2 2 2 2 2 2 2 2 2
left_child=2 3 5 4 13 9 12 8 -8 -1 11 23 14 -2 -4 -5 -11 -17 19 20 22 -12 -10 -6 26 -26 -16 28 -9 -15
right_child=1 -3 6 15 10 -7 7 27 18 16 21 -13 -14 29 24 17 -18 -19 -20 -21 -22 -23 -24 -25 25 -27 -28 -29 -30 -31
leaf_value=-0.067210019086680811 0.063266829169501104 0.053995184767661589 -0.065393672127680408 0.065949811270220898 0.064691948600370947 -0.064182487652123726 -0.064854311198358411 -0.064205243007259105 -0.064769053227120718 -0.066222106198558367 0.065384739912284204 0.063422808106002468 -0.06352902872089225 0.063596149852161429 -0.065529129036740089 0.065496004141209319 -0.065147814346781976 0.064645994022695261 -0.063310279880491246 -0.064820068126798386 -0.063335196519552411 0.064520558231526581 -0.063722777848325279 0.064124457804106985 -0.063557771214671141 -0.064792725273826818 -0.06419327903264252 -0.063968601603355393 -0.065520911659266864 0.064171916307662932
leaf_weight=1.9372067749500255 10.629480749368669 3.461024582386016 2.7374213859438878 2.9296097755432111 6.1776392757892626 1.6256614178419111 2.175321243703368 1.248363442718982 1.2723638638854042 2.9520257711410522 3.4536134898662558 3.2082024812698355 1.8223058506846417 4.8513097763061506 1.3116089999675753 3.7627470195293427 1.9408416002988813 3.6491599380970001 13.232218563556669 1.6628141403198231 7.9552891105413437 2.7932926118373871 4.5346938967704773 5.2291805446147919 1.9471245780587199 1.660035043954849 1.2481123358011244 1.356344476342201 1.4437260031700132 4.412455141544342
leaf_count=14 40 13 21 10 22 13 17 10 10 22 12 12 15 18 10 13 15 13 110 13 66 10 37 19 16 13 10 11 11 16
internal_value=-8.09802e-06 0.0636222 -0.0642201 0.0642743 0.0640078 -0.0658097 -0.0639254 -0.0637402 -0.0636279 -0.066197 0.0644463 0.0642103 -0.0645275 0.0635479 -0.0647319 0.0653246 -0.065796 0.0650775 -0.0635348 -0.0637275 -0.0635955 0.0649983 -0.063952 0.0644318 -0.0644381 -0.0641261 -0.0648778 -0.0645951 -0.0649108 0.0638704
internal_weight=108.621 54.5577 54.0635 51.0967 40.7552 8.45574 45.6077 34.8811 30.8327 6.83007 20.8619 14.615 10.7266 19.8932 8.9043 10.3415 4.89287 7.41191 28.6574 15.4252 13.7623 6.24691 5.80706 11.4068 6.16688 3.60716 2.55972 4.04843 2.69209 9.26376
internal_count=632 198 434 185 149 64 370 285 253 51 75 53 85 74 70 36 37 26 236 126 113 22 47 41 49 29 20 32 21 34
is_linear=0
shrinkage=0.05


Tree=19
num_leaves=31
num_cat=0
split_feature=13 13 0 1 11 1 11 0 6 7 11 10 9 6 0 9 0 12 1 0 7 9 7 1 6 3 9 1 3 9
split_gain=166.445 0.143699 0.0083312 0.00396283 0.00246573 0.00175144 0.00167712 0.00138923 0.00106744 0.00113755 0.000907309 0.000722491 0.00069857 0.00062342 0.000564072 0.000543553 0.000507629 0.000501953 0.000442275 0.000431658 0.000374471 0.000350904 0.000285098 0.000332567 0.000280121 0.000263259 0.000262337 0.000257254 0.000316603 0.00023098
threshold=178.00000000000003 193.50000000000003 3.5000000000000004 2760.3370000000004 9.5000000000000018 2589.1310000000008 10.500000000000002 5.5000000000000009 92.0141592857143 6.5000000000000009 9.5000000000000018 3.5000000000000004 36.726190476190489 24.504548214285716 4.5000000000000009 77.352272727272734 3.5000000000000004 1.5000000000000002 539.59500000000014 5.5000000000000009 24.500000000000004 27.418831168831172 4.5000000000000009 660.64300000000003 85.489586904761907 11.090800000000005 12.966666666666669 3630.6640000000002 477.76445000000007 57.125000000000007
decision_type=2 2 2 2 2 2 2 2 2 2 2 2 2 2 2 2 2 2 2 2 2 2 2 2 2 2 2 2 2 2
left_child=2 -2 5 4 16 10 11 22 9 -8 -1 14 -10 -5 -4 17 -3 19 -12 -11 25 -13 -6 -24 -15 -19 -20 28 -27 -21
right_child=1 3 6 13 7 -7 8 -9 12 15 18 21 -14 24 -16 -17 -18 20 26 29 -22 -23 23 -25 -26 27 -28 -29 -30 -31
leaf_value=-0.066091403729001602 0.051903239742914498 0.062500770071362718 -0.064568779078378088 0.064934316266623202 0.062989038762397961 -0.06330081644468874 -0.063922859663843187 0.064300305760712606 -0.063076086623482366 -0.063905798758946697 -0.06552033736384151 -0.06222464992157202 -0.064535181930277505 0.063656822935591204 -0.063602934158311294 -0.063474250821760128 0.063101554188295328 -0.062136114121546404 -0.063894086065092906 -0.062581043982551154 -0.063354711560145341 -0.063445308143384463 0.063814062567185414 0.063270423702913983 0.064355924168640485 -0.062566216180547557 -0.064817125764925959 -0.062165404047264616 -0.063234417556915806 -0.063381914357601168
leaf_weight=1.8731195330619792 2.9021077007055274 11.801787018775942 2.0250045433640462 2.8291994333267194 5.5056591928005281 1.5673661455512045 2.0986121371388462 4.1503555476665488 1.7858270406723016 1.2309671267867148 1.4435198605060575 1.1464444026350977 1.5172791630029676 2.7002840638160706 5.9633860215544701 2.1821046844124785 5.0079975724220267 4.2200994715094629 1.2334782332181933 2.7964884266257286 1.3232940658926953 1.210337199270725 3.7940229773521414 10.881796181201933 3.0527799427509308 10.01029936224222 2.0475896522402763 2.9686728194355956 2.1542088314890853 1.3277683258056638
leaf_count=14 11 46 16 10 21 13 17 15 15 10 11 10 12 10 49 18 19 37 10 24 11 10 14 41 11 86 16 26 18 11
internal_value=-8.29104e-06 0.0627181 -0.0633365 0.0633493 0.0631455 -0.0648033 -0.0630641 0.0634672 -0.0628928 -0.0627998 -0.0651602 -0.0636208 -0.0637463 0.0643266 -0.0638478 -0.0627162 0.0626798 -0.0626527 -0.064791 -0.0630841 -0.062541 -0.0628515 0.0632959 0.063411 0.0640278 -0.0624853 -0.0644701 -0.0625827 -0.0626845 -0.0628389
internal_weight=104.752 52.626 52.1259 49.7239 41.1416 8.16507 43.9608 24.3318 33.6156 30.3125 6.59771 10.3452 3.30311 8.58226 7.98839 28.2139 16.8098 26.0318 4.72459 5.35522 20.6766 2.35678 20.1815 14.6758 5.75306 19.3533 3.28107 15.1332 12.1645 4.12426
internal_count=632 198 434 187 156 64 370 91 285 258 51 85 27 31 65 241 65 223 37 45 178 20 76 55 21 167 26 130 104 35
is_linear=0
shrinkage=0.05


Tree=20
num_leaves=31
num_cat=0
split_feature=13 13 0 1 11 1 11 0 5 7 11 10 9 6 2 2 7 0 5 9 5 7 0 6 5 6 1 1 6 2
split_gain=156.194 0.146396 0.00686952 0.00327441 0.00204275 0.00144307 0.001388 0.00114749 0.000918971 0.000961401 0.000744369 0.000599165 0.000574915 0.000515241 0.00049095 0.000735881 0.000478115 0.000420729 0.000366733 0.000347815 0.000334562 0.000471378 0.000413323 0.000549122 0.000316411 0.000265676 0.00028767 0.000246547 0.000235255 0.000382482
threshold=178.00000000000003 193.50000000000003 3.5000000000000004 2760.3370000000004 9.5000000000000018 2589.1310000000008 10.500000000000002 5.5000000000000009 407.95165151515158 6.5000000000000009 9.5000000000000018 4.5000000000000009 36.726190476190489 24.504548214285716 43.500000000000007 25.500000000000004 8.5000000000000018 3.5000000000000004 158.28817878787882 77.352272727272734 175.0551428571429 13.500000000000002 6.5000000000000009 25.757468475073317 187.83295882352942 5.4928141025641031 583.99900000000014 741.45700000000022 22.836925000000004 43.500000000000007
decision_type=2 2 2 2 2 2 2 2 2 2 2 2 2 2 2 2 2 2 2 2 2 2 2 2 2 2 2 2 2 2
left_child=2 -2 5 4 17 10 11 14 9 -8 -1 16 -10 -5 15 25 -4 -3 -12 20 21 27 -23 -24 -17 -6 -27 -11 -18 -30
right_child=1 3 6 13 7 -7 8 -9 12 19 18 -13 -14 -15 -16 24 28 -19 -20 -21 -22 22 23 -25 -26 26 -28 -29 29 -31
leaf_value=-0.065062335121117934 0.050805265038612518 0.061743514305993556 -0.063527413095510202 0.063997566228054206 0.062712559437336113 -0.062484960505787057 -0.063061916532877543 0.063410987707968242 -0.062206027435691792 -0.062315635853832853 -0.064226925308831784 -0.061924657704847896 -0.063442561659767499 0.06315842163461044 0.061823830259561043 0.063450332870059176 -0.063084241919852777 0.062300876266241083 -0.063309919782737797 -0.062589870545601931 -0.061687187103349389 -0.063161324205612143 -0.061832376017214245 -0.063034246641237593 0.062674295915128422 0.061912937762973998 0.062510062529738827 -0.061609602179026703 -0.061825781555570405 -0.062903446460424825
leaf_weight=1.8092283755540837 2.8187141120433798 11.360385417938234 2.5485496893525106 2.7296048402786237 3.6214716136455634 1.5098955780267713 2.0228205174207714 4.0018970072269431 1.8269112482666963 1.6105203777551702 2.7521360889077187 1.6903638020157803 1.9363018497824667 5.5458912253379822 2.4778247624635688 2.6717870831489554 2.3806520327925682 4.823417752981185 1.8056246638298032 1.8635395616292942 11.682580068707464 1.3148075342178343 3.481280229985714 1.3072423934936521 2.5836562365293503 4.2361201196908933 3.8502635657787323 5.3240437284111977 1.458551459014416 1.8905637860298155
leaf_count=14 11 46 21 10 14 13 17 15 16 14 22 15 16 21 10 10 20 19 15 16 105 11 31 11 10 17 15 48 13 16
internal_value=-8.48267e-06 0.061879 -0.0625189 0.0625306 0.0623417 -0.0638747 -0.0622666 0.06264 -0.0621077 -0.0620111 -0.0642043 -0.0627825 -0.0628423 0.0634352 0.0624813 0.0625773 -0.0629577 0.0619096 -0.0638636 -0.0619312 -0.0618815 -0.0620556 -0.0623761 -0.0621605 0.0630688 0.0623566 0.0621973 -0.0617736 -0.0627042 -0.0624341
internal_weight=100.937 50.721 50.2156 47.9023 39.6268 7.87688 42.3387 23.443 32.37 28.6068 6.36699 9.96868 3.76321 8.2755 19.4411 16.9633 8.27832 16.1838 4.55776 26.584 24.7205 13.0379 6.10333 4.78852 5.25544 11.7079 8.08638 6.93456 5.72977 3.34912
internal_count=632 198 434 187 156 64 370 91 285 253 51 85 32 31 76 66 70 65 37 236 220 115 53 42 20 46 32 62 49 29
is_linear=0
shrinkage=0.05


Tree=21
num_leaves=31
num_cat=0
split_feature=13 3 0 0 15 15 11 13 0 5 7 11 15 11 0 9 5 3 4 15 9 12 9 6 5 0 7 5 9 3
split_gain=146.692 0.157286 0.00568028 0.00305907 0.00137336 0.00119247 0.00115105 0.00098616 0.000926729 0.000764904 0.000808616 0.00061234 0.000583761 0.000434191 0.000389472 0.000371751 0.000344548 0.000600794 0.000313057 0.000303464 0.000299875 0.000267415 0.000241451 0.000238648 0.000321151 0.00022697 0.000200297 0.000197649 0.000180724 0.000173686
threshold=178.00000000000003 -314.1541499999999 3.5000000000000004 5.5000000000000009 2865.0050000000006 2589.1310000000008 10.500000000000002 233.50000000000003 3.5000000000000004 390.01793464052292 6.5000000000000009 9.5000000000000018 729.52800000000013 9.5000000000000018 5.5000000000000009 36.726190476190489 224.92614285714288 500.77330000000001 0.15505050505050508 539.59500000000014 12.117647058823531 1.5000000000000002 25.712500000000002 20.811029411764711 229.13697744360906 5.5000000000000009 8.5000000000000018 244.8443285714286 12.966666666666669 128.34600000000003
decision_type=2 2 2 2 2 2 2 2 2 2 2 2 2 2 2 2 2 2 2 2 2 2 2 2 2 2 2 2 2 2
left_child=2 -2 5 4 8 11 14 -5 13 10 -8 -1 -10 -3 22 -11 17 21 -9 -13 -18 25 -4 -14 -25 -12 -24 -16 -21 -15
right_child=1 3 6 7 -6 -7 9 18 12 15 16 19 23 29 27 -17 20 -19 -20 28 -22 -23 26 24 -26 -27 -28 -29 -30 -31
leaf_value=-0.064113588459520893 0.0497936621052096 0.061055633940199416 -0.061728884169680601 0.063237931038902032 0.062635633676077579 -0.061728711790745551 -0.062264712760743406 0.062604570307733531 0.062419819510392355 -0.061471029606795895 -0.06217540542392011 -0.063632478450566451 0.061926230029033164 0.061379035036333664 -0.062079856215088228 -0.062436053444173391 -0.061632748793588578 -0.062106684325581377 0.061950718046497669 -0.062234193239976754 -0.060771923366264739 -0.061102124062004853 -0.062787587097915459 0.061044903957422791 0.061787985619383548 -0.061329689196870943 -0.06211951397824983 -0.061290798687717744 -0.063029173947947811 0.061862395097355138
leaf_weight=1.7458085119724263 2.8949054330587378 10.699359685182573 1.6669225543737392 3.4416397809982282 2.8344274312257758 1.4534048885107038 1.948174811899668 3.0912141352891922 3.0535137206315985 1.7580615058541287 1.1373934000730579 1.3442307114601133 3.9843026101589185 5.8087670058011991 1.2484047859907152 2.3082533106207848 1.215724192559718 2.1617406308650962 4.4891718029975891 1.1446847617626192 6.0282597839832306 11.967123985290526 2.1153098046779633 2.8504656851291656 2.9680721610784531 2.622686080634594 2.3890532851219177 2.1785876527428627 1.9040276929736135 2.7328843176364899
leaf_count=14 12 45 15 13 11 13 17 12 12 16 10 11 16 24 11 20 11 19 18 10 57 111 18 12 12 24 21 20 16 11
internal_value=-8.69466e-06 0.0610977 -0.0617609 0.0618098 0.0615806 -0.0630165 -0.0615269 0.062536 0.0614875 -0.0613794 -0.0612834 -0.0633214 0.0618161 0.0612679 -0.0620056 -0.0620188 -0.0612073 -0.0613251 0.0622174 -0.0630066 -0.0609164 -0.0612177 -0.062243 0.0616281 0.061424 -0.0615855 -0.0624333 -0.0615782 -0.0627307 0.0615337
internal_weight=97.1866 48.8487 48.3379 45.9538 34.9318 7.59216 40.7457 11.022 32.0974 31.1474 27.0811 6.13875 12.8564 19.241 9.59828 4.06631 25.1329 17.8889 7.58039 4.39294 7.24398 15.7272 6.17129 9.80284 5.81854 3.76008 4.50436 3.42699 3.04871 8.54165
internal_count=632 198 434 186 143 64 370 43 132 285 249 51 52 80 85 36 232 164 30 37 68 145 54 40 24 34 39 31 26 35
is_linear=0
shrinkage=0.05


Tree=22
num_leaves=31
num_cat=0
split_feature=13 13 0 0 11 5 11 5 7 11 6 5 11 10 4 0 9 5 7 2 0 8 5 7 0 6 9 9 5 9
split_gain=137.869 0.158413 0.00470732 0.00208789 0.000957087 0.000921827 0.000858744 0.000636432 0.000672141 0.000618761 0.000860341 0.000601336 0.000508295 0.000421681 0.000406102 0.000328241 0.000308645 0.000297323 0.000294088 0.000309262 0.000310417 0.000287307 0.000286404 0.000403969 0.000422862 0.000262595 0.000250462 0.000206429 0.000159985 0.000162259
threshold=178.00000000000003 193.50000000000003 3.5000000000000004 5.5000000000000009 10.500000000000002 328.79885909090916 7.5000000000000009 390.01793464052292 6.5000000000000009 10.500000000000002 23.977100000000004 281.43431666666669 10.500000000000002 3.5000000000000004 0.22153846153846157 4.5000000000000009 36.726190476190489 158.28817878787882 4.5000000000000009 46.500000000000007 3.5000000000000004 2.5000000000000004 224.92614285714288 11.500000000000002 6.5000000000000009 25.757468475073317 12.117647058823531 27.418831168831172 167.88748571428576 77.916666666666671
decision_type=2 2 2 2 2 2 2 2 2 2 2 2 2 2 2 2 2 2 2 2 2 2 2 2 2 2 2 2 2 2
left_child=2 -2 5 6 13 12 -3 8 -6 -5 -11 14 -1 15 18 -4 -9 -14 -8 20 -20 -13 23 -10 -25 -26 -24 -15 -17 -30
right_child=1 3 4 9 7 -7 11 16 22 10 -12 21 17 27 -16 28 -18 -19 19 -21 -22 -23 26 24 25 -27 -28 -29 29 -31
leaf_value=-0.063024509603084644 0.048462234945156446 0.060435247789646332 -0.062049123079714288 0.061042186992817785 -0.061525298911106176 -0.061122919544893399 0.060472901451397804 -0.060788162967686792 -0.060397138987157428 0.06270063527784446 0.06155090214652479 0.061056166524512324 -0.062492160831316659 -0.060151296959484971 0.061375599553200967 -0.061640307529156481 -0.061684658978148177 -0.061511348864761728 0.060760879849025944 0.060437573615792287 0.061340368486846555 0.06171541783954735 -0.060939505334619407 -0.061527202741504416 -0.060519567121686227 -0.061214146075096898 -0.060137258800783279 -0.06114349078680599 -0.060830903090781263 -0.061566638037472622
leaf_weight=2.6186585426330558 2.637178346514701 7.7846142947673789 1.813212625682352 2.3754423111677152 1.8748655766248763 1.5133716315031049 5.0518026947975256 1.6906279847025865 8.1639694646000915 2.5832332372665405 4.3960791677236557 2.8487270176410666 1.8559164181351664 1.0187467783689501 3.6231244951486579 1.885501869022846 2.2217435538768768 1.3238225802779195 4.4394294470548612 2.5177635997533789 4.8201158046722412 3.9362240582704544 1.1692533791065205 1.9842433854937533 5.2105585709214211 1.8417442515492437 5.7932363674044609 1.0799333825707433 2.3335285857319836 1.1038863360881803
leaf_count=22 11 34 16 10 17 14 22 16 79 10 18 12 16 10 15 17 20 12 19 11 20 16 11 18 50 17 57 10 22 10
internal_value=-8.93879e-06 0.0603681 -0.0610572 0.0610756 -0.0608399 -0.0622218 0.0608984 -0.0607027 -0.0606133 0.0617392 0.0619764 0.0610307 -0.0625087 -0.0612849 0.0608954 -0.0614681 -0.0612973 -0.0620838 0.060792 0.0609289 0.0610625 0.0614386 -0.0605426 -0.0606521 -0.0608824 -0.060701 -0.060272 -0.0606619 -0.0612702 -0.0610672
internal_weight=93.5106 47.0137 46.4968 44.3766 39.1851 7.31177 35.0218 29.9502 26.0379 9.35475 6.97931 27.2372 5.7984 9.23481 20.4522 7.13613 3.91237 3.17974 16.8291 11.7773 9.25955 6.78495 24.163 17.2005 9.03655 7.0523 6.96249 2.09868 5.32292 3.43741
internal_count=632 198 434 187 370 64 149 285 249 38 28 115 50 85 87 65 36 28 72 50 39 28 232 164 85 67 68 20 49 32
is_linear=0
shrinkage=0.05


Tree=23
num_leaves=31
num_cat=0
split_feature=13 3 0 0 15 15 13 11 0 5 7 2 11 10 9 11 5 7 2 15 9 5 3 6 12 6 2 5 9 9
split_gain=129.666 0.167485 0.00391078 0.00221517 0.000977908 0.000822484 0.000806872 0.000797016 0.000658725 0.000531608 0.000552356 0.000513091 0.000420816 0.000351606 0.000330394 0.000301427 0.000294198 0.00027553 0.000254458 0.00020869 0.00020855 0.000195023 0.000398834 0.000185355 0.000158968 0.000137931 0.000231029 0.000191747 0.000125294 0.000121692
threshold=178.00000000000003 -314.1541499999999 3.5000000000000004 5.5000000000000009 2865.0050000000006 2589.1310000000008 233.50000000000003 10.500000000000002 3.5000000000000004 407.95165151515158 6.5000000000000009 46.500000000000007 9.5000000000000018 4.5000000000000009 36.726190476190489 9.5000000000000018 182.54095000000004 8.5000000000000018 25.500000000000004 539.59500000000014 77.352272727272734 175.0551428571429 500.77330000000001 18.514786904761909 1.5000000000000002 22.836925000000004 48.500000000000007 182.54095000000004 12.966666666666669 8.5470085470085486
decision_type=2 2 2 2 2 2 2 2 2 2 2 2 2 2 2 2 2 2 2 2 2 2 2 2 2 2 2 2 2 2
left_child=2 -2 5 4 8 12 -5 13 15 10 -9 16 -1 17 -11 -3 18 -4 -10 -14 21 22 24 -8 -12 27 -27 -19 -21 -23
right_child=1 3 7 6 -6 -7 23 9 11 14 20 -13 19 -15 -16 -17 -18 25 -20 28 -22 29 -24 -25 -26 26 -28 -29 -30 -31
leaf_value=-0.062428670161877656 0.047617045409883291 0.059792240603663505 -0.061214369511295101 0.061752897263724495 0.061175370046100921 -0.060372193039628902 0.06042580747624713 -0.06083843180177681 0.060511539067273239 -0.060152828254717697 -0.060264142197862504 0.059842492897517668 -0.062014834614254402 -0.059917351268781442 -0.061145988408479492 0.060206614433246146 0.060331314594122866 -0.061322509908300599 0.061231652206071699 -0.060808373761733509 -0.060470860931693585 -0.060224912827509997 -0.06082863612871281 0.060974044866811773 -0.059808795778846492 -0.059925337616571789 -0.060808393976398589 -0.060371691305440046 -0.061496293614819814 -0.059672671405933964
leaf_weight=1.6214881166815747 2.7024980783462516 9.8811352998018318 2.2749977260828 3.204035356640814 2.6276363581418982 1.3437157198786733 2.2880215793848038 1.8030499592423499 2.2949094325304014 1.6247287318110459 2.5571074560284668 2.6420752853155127 1.2472842335700987 1.5014389902353285 1.7280624285340307 7.8955044895410529 4.3204654604196548 1.0917837321758272 2.6356125921010971 1.05916353315115 1.6601968705654133 1.1180722564458836 1.3793825730681408 4.7266487628221512 7.654077835381031 1.6031638756394389 1.3767550662159918 1.0309200808405874 1.7647618204355238 9.2559279203414899
leaf_count=14 12 45 21 13 11 13 10 17 10 16 25 12 11 15 16 35 19 10 11 10 16 11 13 20 77 16 13 10 16 94
internal_value=-9.18704e-06 0.0596867 -0.0604028 0.0604539 0.0602509 -0.0614849 0.0610955 -0.0602007 0.060169 -0.0600729 -0.0599949 0.060457 -0.0617475 -0.0606148 -0.0606647 0.0599763 0.0606325 -0.0607568 0.0608965 -0.0614762 -0.0599305 -0.0598897 -0.0600306 0.0607952 -0.0599228 -0.0605527 -0.0603333 -0.0608607 -0.0612383 -0.0597322
internal_weight=89.9146 45.2185 44.6961 42.516 32.2973 7.03641 10.2187 37.6597 29.6697 28.7806 25.4278 11.8931 5.6927 8.87906 3.35279 17.7766 9.25099 7.37762 4.93052 4.07121 23.6248 21.9646 11.5906 7.01467 10.2112 5.10262 2.97992 2.1227 2.82393 10.374
internal_count=632 198 434 186 143 64 43 370 132 285 253 52 51 85 32 80 40 70 21 37 236 220 115 30 102 49 29 20 26 105
is_linear=0
shrinkage=0.05


Tree=24
num_leaves=31
num_cat=0
split_feature=13 13 0 1 11 1 11 0 5 7 6 11 10 2 2 0 9 0 5 7 0 6 9 5 6 5 9 1 6 5
split_gain=122.028 0.171592 0.00325538 0.00169425 0.000994735 0.00068436 0.000664806 0.000521675 0.000444272 0.0004674 0.000360304 0.00034899 0.000293524 0.000254357 0.000355949 0.000229545 0.000214653 0.000206491 0.000200437 0.000285463 0.000300505 0.000184961 0.000177185 0.000173673 0.000173281 0.000167694 0.00014626 0.000142963 0.000120646 0.000111168
threshold=178.00000000000003 193.50000000000003 3.5000000000000004 2760.3370000000004 9.5000000000000018 2589.1310000000008 10.500000000000002 5.5000000000000009 390.01793464052292 6.5000000000000009 24.504548214285716 9.5000000000000018 3.5000000000000004 43.500000000000007 25.500000000000004 4.5000000000000009 36.726190476190489 3.5000000000000004 224.92614285714288 11.500000000000002 6.5000000000000009 25.757468475073317 12.117647058823531 153.87261111111115 5.4928141025641031 187.83295882352942 27.418831168831172 583.99900000000014 85.489586904761907 167.88748571428576
decision_type=2 2 2 2 2 2 2 2 2 2 2 2 2 2 2 2 2 2 2 2 2 2 2 2 2 2 2 2 2 2
left_child=2 -2 5 4 17 11 12 13 9 -8 -5 -1 15 14 24 -4 -10 -3 19 -11 -21 -22 -20 -13 -6 -16 -14 -26 -12 -17
right_child=1 3 6 10 7 -7 8 -9 16 18 28 23 26 -15 25 29 -18 -19 22 20 21 -23 -24 -25 27 -27 -28 -29 -30 -31
leaf_value=-0.061676519919092877 0.046230825218436897 0.059217980208381142 -0.060655048474187158 0.061023638374905431 0.059997905323175206 -0.059764528905173697 -0.060199463308894877 0.060456562594848863 -0.05956093943030847 -0.059219115536828487 0.059999797772714185 -0.061109673906029331 -0.059002016197184461 0.059266960098882437 0.060522166300369773 -0.060298564171353042 -0.060338838984551127 0.059640388238029578 -0.059695438157405911 -0.060208906264689104 -0.05932584304999064 -0.059932428031321233 -0.058993125846958573 -0.060442873127516283 0.059331281184868294 0.059912169651325134 -0.059871465162584972 0.059786765848552442 0.060504682861878635 -0.059801572051115151
leaf_weight=1.560738056898116 2.4633687436580649 9.6938723772764188 1.6777820736169795 2.3638629764318457 3.1104481816291862 1.2908476665616033 1.7328557968139708 3.4321393370628348 1.5604578182101243 7.5293378904461887 2.2252935171127319 2.0515981391072278 0.93894001841545083 2.1130072623491278 2.2975089699029914 1.743046663701534 2.0542165860533714 4.1240163147449485 1.0796196833252896 1.8348656892776469 4.8068770542740822 1.7015794515609739 5.3403020650148392 1.8635138720273969 3.6130958944559097 2.2108888775110245 0.99764464050531387 3.2926683276891708 2.5267186611890793 3.1741825267672539
leaf_count=14 11 46 16 10 14 13 17 15 16 79 10 19 10 10 10 17 20 19 11 18 50 17 57 18 17 10 10 15 11 32
internal_value=-9.46587e-06 0.0590478 -0.0597936 0.0598178 0.0596705 -0.0608002 -0.0596053 0.0598953 -0.0594862 -0.0594085 0.0605192 -0.0610443 -0.0599911 0.0597795 0.0598541 -0.0601501 -0.060003 0.059344 -0.059347 -0.0594423 -0.0596438 -0.0594844 -0.0591112 -0.0607923 0.059688 0.060223 -0.0594499 0.0595485 0.0602683 -0.0599777
internal_weight=86.4053 43.4669 42.9384 41.0035 33.8876 6.7667 36.1717 20.0698 27.6401 24.0254 7.11588 5.47585 8.5316 16.6376 14.5246 6.59501 3.61467 13.8179 22.2926 15.8727 8.34332 6.50846 6.41992 3.91511 10.0162 4.5084 1.93658 6.90576 4.75201 4.91723
internal_count=632 198 434 187 156 64 370 91 285 249 31 51 85 76 66 65 36 65 232 164 85 67 68 37 46 20 20 32 21 49
is_linear=0
shrinkage=0.05


Tree=25
num_leaves=31
num_cat=0
split_feature=13 13 14 1 14 1 11 13 5 7 1 11 11 4 10 9 6 7 11 9 1 5 7 14 6 4 1 9 9 6
split_gain=114.981 0.460288 0.00272141 0.00166521 0.000950295 0.00057066 0.000527726 0.000499788 0.000372434 0.00038655 0.000317064 0.000298493 0.000289993 0.000268413 0.000239067 0.00023039 0.00021587 0.000204134 0.000155012 0.000149522 0.000145789 0.000138052 0.000214589 0.000166914 0.000220837 0.000121311 9.21714e-05 8.76929e-05 8.75955e-05 8.29158e-05
threshold=182.50000000000003 169.00000000000003 3.5000000000000004 2760.3370000000004 3.5000000000000004 2589.1310000000008 10.500000000000002 220.50000000000003 407.95165151515158 6.5000000000000009 872.08450000000005 9.5000000000000018 9.5000000000000018 0.21941176470588239 4.5000000000000009 36.726190476190489 24.504548214285716 8.5000000000000018 11.500000000000002 77.352272727272734 539.59500000000014 175.0551428571429 13.500000000000002 6.5000000000000009 25.757468475073317 0.15505050505050508 741.45700000000022 12.966666666666669 8.5470085470085486 22.836925000000004
decision_type=2 2 2 2 2 2 2 2 2 2 2 2 2 2 2 2 2 2 2 2 2 2 2 2 2 2 2 2 2 2
left_child=1 2 5 4 11 12 14 -6 9 -8 -9 -2 -1 -13 17 -10 -5 -4 -12 21 -14 22 26 -24 -25 -18 -11 -22 -23 -19
right_child=3 -3 6 16 7 -7 8 10 15 19 18 13 20 -15 -16 -17 25 29 -20 -21 27 28 23 24 -26 -27 -28 -29 -30 -31
leaf_value=-0.060978141029231325 0.05869752730092264 -0.024256175142825201 -0.059932637501720426 0.060372260196725494 0.060112307477119056 -0.059198051564785574 -0.059604265306567289 0.059675274783302916 -0.059008849169281619 -0.059072320889703982 0.058987164129900287 0.058934871523091528 -0.060624101662922793 0.059587945833990491 -0.058802460602489795 -0.059872191222911264 0.060025068878156208 -0.059595990809713645 0.059390432341801483 -0.059289350734407421 -0.059574663758958452 -0.059073355902030333 -0.059690326248965933 -0.058750622461510305 -0.059595026322540337 0.059544655358613655 -0.058581462457532096 -0.060173583009061032 -0.058585097942174029 -0.059163541347874729
leaf_weight=1.5011905506253231 9.5115141123533267 0.96320627629756828 2.1018120199441892 2.2722197324037543 2.2357192933559444 1.2393436729907987 1.6643851399421752 4.1219317018985739 1.497888304293155 1.2257207110524229 5.7967810183763486 5.7734417766332617 1.1540490016341212 2.1626723855733871 1.383567117154598 1.5962262377142904 2.6745304018259048 1.8578461334109304 4.0463446229696274 1.532031975686549 0.97743253409862552 1.0309047251939762 1.0835902988910673 2.7594886571168904 1.0763111039996145 2.5832274407148361 4.3520103469491005 1.6310672685503957 8.4317552447319013 2.7478315681219101
leaf_count=14 47 7 21 10 10 13 17 19 16 13 28 28 11 10 15 16 12 19 19 16 10 11 11 30 11 12 48 16 93 29
internal_value=-9.74878e-06 -0.0584198 -0.0592254 0.0592929 0.0591425 -0.0601633 -0.0590478 0.0594182 -0.058939 -0.0588702 0.0593071 0.0588864 -0.0603906 0.0591128 -0.0594009 -0.0594542 0.059965 -0.0595243 0.0591529 -0.0588133 -0.0601562 -0.0587768 -0.0589016 -0.0591424 -0.0589876 0.059789 -0.0586893 -0.0599492 -0.0586383 -0.059338
internal_weight=82.986 41.8077 40.8445 41.1784 33.6484 6.50308 34.3414 16.2008 26.2503 23.1562 13.9651 17.4476 5.26374 7.93611 8.09106 3.09411 7.52998 6.70749 9.84313 21.4918 3.76255 19.9598 10.4971 4.91939 3.8358 5.25776 5.57773 2.6085 9.46266 4.60568
internal_count=632 437 430 195 161 64 366 76 282 250 66 85 51 38 84 32 34 69 47 233 37 217 113 52 41 24 61 26 104 48
is_linear=0
shrinkage=0.05


Tree=26
num_leaves=31
num_cat=0
split_feature=0 1 11 10 7 3 9 11 8 7 7 9 9 0 0 3 7 0 4 9 12 4 2 0 8 2 4 12 5 10
split_gain=9.13793 2.62138 2.2011 1.39233 1.27032 1.4513 1.3531 1.00187 0.916364 0.80178 1.0975 1.61523 1.27768 1.49737 0.777825 0.762927 1.04381 1.36395 1.06051 0.704854 1.2854 0.700087 0.713756 0.675214 0.647816 0.673502 0.642901 0.695781 0.634326 0.620598
threshold=3.5000000000000004 2589.1310000000008 10.500000000000002 4.5000000000000009 7.5000000000000009 52.759700000000016 41.392857142857146 9.5000000000000018 2.5000000000000004 24.500000000000004 11.500000000000002 77.916666666666671 51.63333333333334 9.5000000000000018 6.5000000000000009 391.39300000000003 18.500000000000004 5.5000000000000009 0.13273809523809529 37.690476190476197 2.5000000000000004 0.08257575757575758 46.500000000000007 8.5000000000000018 2.5000000000000004 46.500000000000007 0.22426470588235295 2.5000000000000004 266.80144642857152 1.5000000000000002
decision_type=2 2 2 2 2 2 2 2 2 2 2 2 2 2 2 2 2 2 2 2 2 2 2 2 2 2 2 2 2 2
left_child=1 7 3 14 6 29 8 -1 -4 10 21 12 13 15 19 26 17 -17 -19 20 -2 -7 28 -14 -21 -26 27 -12 -23 -6
right_child=2 -3 4 -5 5 9 -8 -9 -10 -11 11 -13 23 -15 -16 16 -18 18 -20 24 -22 22 -24 -25 25 -27 -28 -29 -30 -31
leaf_value=0.042014066233200462 0.040324280032755032 -0.029032543849794375 -0.044603686772359576 -0.041090169729378775 -0.024212099365852086 -0.0079921348066863043 0.029604210215317797 0.020563645137736543 0.0038887302076647391 -0.058708401149768691 -0.0065747157807414932 0.043118963251911557 -0.058342875315055789 -0.058295748780425961 -0.025100613670765187 0.043100995223360923 0.046881630305530581 -0.044097784289181048 0.010960546226089359 0.023590735761981327 -0.013312543897682654 -0.05811609576936061 -0.0025627981483903614 -0.0089959792314044142 -0.019349894688144263 0.017392160044857496 0.017626505127489957 -0.058387827604871524 -0.023601546039672506 -0.058159251723235099
leaf_weight=10.565699435770517 4.1471412107348469 1.9866603314876545 1.6624227538704861 1.5526640117168415 2.2250868231058112 2.9921705648303085 2.6968023553490639 11.228483609855173 2.3533692732453346 1.0955723375082005 1.4687436372041691 1.4664908349513996 1.9522739648818963 1.1499986201524723 1.5403537452220906 1.3590889051556585 1.624879330396652 1.7087355926632883 1.7916210964322088 2.581555023789404 1.5287544205784795 3.3991734534502029 1.2325729578733442 1.0748632326722143 3.6345436796545982 1.8988709673285482 1.0026771947741506 1.1594139784574506 2.1881649121642113 3.408866249024868
leaf_count=61 24 17 17 16 21 25 17 75 18 12 12 8 22 13 14 8 9 18 13 17 13 39 10 9 32 13 7 13 20 39
internal_value=-9.38669e-06 0.0259507 -0.0110539 0.00402834 -0.0175811 -0.0216941 0.00221049 0.0309627 -0.0161857 -0.0168226 -0.015028 -0.00685427 -0.0119819 -0.00423232 0.0085977 0.00191418 0.0121895 0.000589322 -0.0159168 0.0123616 0.0258777 -0.0281554 -0.0370019 -0.040821 0.00290799 -0.00674133 -0.0164366 -0.0294321 -0.0445992 -0.0447521
internal_weight=79.6777 23.7808 55.8969 16.8839 39.013 32.3004 6.71259 21.7942 4.01579 26.6664 25.5709 15.7588 14.2923 11.2652 15.3312 10.1152 6.48432 4.85945 3.50036 13.7909 5.6759 9.81208 6.81991 3.02714 8.11497 5.53341 3.63083 2.62816 5.58734 5.63395
internal_count=632 153 479 129 350 298 52 136 35 238 226 132 124 93 113 80 48 39 31 99 37 94 69 31 62 45 32 25 59 60
is_linear=0
shrinkage=0.05


Tree=27
num_leaves=31
num_cat=0
split_feature=13 13 0 1 0 1 11 5 7 11 11 3 13 3 1 0 0 1 6 0 5 3 7 11 13 2 1 13 1 5
split_gain=106.036 0.476757 0.00441672 0.00177523 0.0011895 0.00101179 0.000898757 0.000582298 0.000500023 0.000492807 0.000430678 0.000352239 0.000327461 0.000304174 0.000221351 0.000192818 0.000177005 0.000128449 0.000121051 0.000284618 0.000196247 0.000140602 0.000120601 0.000118139 9.73112e-05 9.47494e-05 9.43789e-05 9.00664e-05 8.76433e-05 8.72625e-05
threshold=182.50000000000003 169.00000000000003 3.5000000000000004 2517.3045000000006 3.5000000000000004 2589.1310000000008 10.500000000000002 390.01793464052292 6.5000000000000009 9.5000000000000018 9.5000000000000018 299.4545 220.50000000000003 845.52859999999998 872.08450000000005 5.5000000000000009 6.5000000000000009 539.59500000000014 17.0088705882353 5.5000000000000009 208.02425000000002 500.77330000000001 11.500000000000002 9.5000000000000018 29.500000000000004 60.500000000000007 1155.9300000000001 32.500000000000007 5891.3670000000011 251.00912962962965
decision_type=2 2 2 2 2 2 2 2 2 2 2 2 2 2 2 2 2 2 2 2 2 2 2 2 2 2 2 2 2 2
left_child=1 2 5 4 9 10 15 8 -8 -2 -1 -5 -6 -13 -14 24 28 -12 22 27 21 -21 -10 -16 -4 -24 -11 -20 -9 -17
right_child=3 -3 6 11 12 -7 7 16 18 26 17 13 14 -15 23 29 -18 -19 19 20 -22 -23 25 -25 -26 -27 -28 -29 -30 -31
leaf_value=-0.060771919254815343 0.057864368435738528 -0.022911690404629627 -0.058493097797023733 0.059770119564275019 0.059319046612640008 -0.058421274216542765 -0.058918090668245271 -0.058863533829116237 -0.057646799323489165 0.058307491125349026 -0.060207040921275705 0.058669216354285895 0.05895149131298482 0.059358797014744259 0.058192158630403647 -0.058788202585835003 -0.059346384826863031 -0.059565111557672967 -0.058929149277763153 -0.057990218096322127 -0.05767669500663556 -0.058592536904473524 -0.058259854907057408 0.058615846995657778 -0.059068974682306402 -0.057796090498973322 0.05870715097375491 -0.058334736722986696 -0.058250237458482824 -0.058214947003245143
leaf_weight=1.4830040186643589 8.849714815616613 0.96225360035896201 0.89648563414811988 2.1772215962409955 2.1120817661285392 1.1650551185011861 1.5790129452943862 1.1070378571748731 3.9207291528582591 5.4824745357036582 1.1241474077105524 3.021807536482811 3.904673755168913 3.3967324644327164 2.3270453810691833 1.1026934459805491 0.96290978789329518 2.5402097627520561 0.92693773657083456 3.3577999770641309 3.6741603165864944 1.3618656396865843 2.2032638713717461 5.6158494651317596 4.0367712453007698 2.2020971775054932 2.0219774693250656 2.0393154993653297 1.2294979840517042 1.6680832952260969
leaf_count=14 47 7 10 10 10 13 17 12 47 28 11 15 19 16 12 12 10 26 10 39 44 15 25 28 43 26 10 23 14 19
internal_value=-1.40441e-05 -0.0576752 -0.0585423 0.0585863 0.0584065 -0.0597518 -0.0583057 -0.0581579 -0.058062 0.0581171 -0.060053 0.0592206 0.0587455 0.0590341 0.0586432 -0.0587769 -0.0587759 -0.059762 -0.0579933 -0.0580995 -0.0579507 -0.058164 -0.0578485 0.0584917 -0.0589643 -0.058028 0.0584152 -0.0585205 -0.0585408 -0.0584431
internal_weight=78.4529 39.5433 38.5811 38.9096 30.3138 6.31242 32.2687 24.5646 21.2652 16.3542 5.14736 8.59576 13.9597 6.41854 11.8476 7.70403 3.29945 3.66436 19.6862 11.3601 8.39383 4.71967 8.32609 7.94289 4.93326 4.40536 7.50445 2.96625 2.33654 2.77078
internal_count=632 437 430 195 154 64 366 282 246 85 51 41 69 31 59 84 36 37 229 131 98 54 98 40 53 51 38 33 26 31
is_linear=0
shrinkage=0.05


Tree=28
num_leaves=31
num_cat=0
split_feature=13 4 0 1 0 1 0 6 13 2 7 9 13 4 9 4 13 4 7 6 5 3 3 6 4 2 1 5 3 6
split_gain=100.003 0.195336 0.0036451 0.00213844 0.00106635 0.000846457 0.000723584 0.000641459 0.000637137 0.000487756 0.000480584 0.000349908 0.000337046 0.000236386 0.000160295 0.000153183 0.00013361 0.000146682 0.000118694 0.000115527 0.000115168 0.000136964 0.000114787 0.000104352 0.000132866 8.63702e-05 7.58405e-05 8.37697e-05 6.98008e-05 5.81452e-05
threshold=178.00000000000003 0.36969696969696975 3.5000000000000004 2760.3370000000004 3.5000000000000004 2589.1310000000008 5.5000000000000009 96.354888888888908 272.50000000000006 46.500000000000007 8.5000000000000018 65.666666666666671 241.50000000000003 0.063068181818181829 75.58750000000002 0.15505050505050508 100.50000000000001 0.18708333333333335 7.5000000000000009 12.402883333333333 180.22257142857148 500.77330000000001 76.582600000000014 50.518434920634924 0.13178571428571431 12.500000000000002 872.08450000000005 211.39107575757581 95.509500000000017 15.304273809523812
decision_type=2 2 2 2 2 2 2 2 2 2 2 2 2 2 2 2 2 2 2 2 2 2 2 2 2 2 2 2 2 2
left_child=2 3 5 4 25 16 9 14 -5 10 11 18 -6 -12 20 -10 17 28 19 -4 21 -8 -15 -22 -25 -2 -14 29 -1 -28
right_child=1 -3 6 8 12 -7 7 -9 15 -11 13 -13 26 22 -16 -17 -18 -19 -20 -21 23 -23 -24 24 -26 -27 27 -29 -30 -31
leaf_value=-0.059910678838270795 0.057440012610748964 0.043466535516692613 -0.058650564401956706 0.05961888842764225 0.058669188562501431 -0.057943388443950507 -0.057560920657687087 -0.0587218500849125 0.058860761378087212 -0.058928545308138292 -0.058210585648749792 -0.059045831704688218 0.058310276156826928 -0.057127158447783488 -0.058046117576011073 0.058317690293187008 -0.059981194079591571 -0.058982752943876227 -0.057705933006315518 -0.058045778621731915 -0.057256255757213742 -0.058140571103506011 -0.057683270860018322 -0.057363572283524025 -0.058081502080337882 0.057707532713465896 0.058092335550110501 0.058245053970981335 -0.05935059285509961 0.057757879160749419
leaf_weight=1.0018398165702818 4.5183403640985516 2.4246044158935538 1.2742877602577229 2.1496237069368354 3.4135192185640326 1.117142856121063 6.114242807030684 1.2835619077086438 2.65754534304142 1.6737449318170536 1.4875964149832723 1.3123702257871626 3.1221733987331381 1.5028609186410906 1.5577595084905613 2.5391111522912979 1.0071558877825735 1.6835445091128347 1.2563608214259145 2.0760940387845039 5.3779981285333616 1.2229199111461637 2.4254743754863739 1.7020944580435755 1.0371296331286428 9.0807591527700406 2.3036943376064283 2.7228194922208786 1.2507787868380544 2.9811208248138428
leaf_count=10 25 13 14 10 17 13 74 14 13 18 17 14 16 19 18 13 10 18 15 24 67 14 29 21 12 49 12 14 13 16
internal_value=-1.36269e-05 0.0571972 -0.058064 0.0581352 0.0579369 -0.0591864 -0.0578467 -0.057644 0.0588949 -0.0581318 -0.0580142 -0.0583256 0.0582346 -0.0576738 -0.0575627 0.0585954 -0.0594673 -0.0593358 -0.0581204 -0.0582758 -0.057514 -0.0576575 -0.0574705 -0.0573842 -0.0576354 0.0576186 0.0581013 0.0580198 -0.0595997 0.0579037
internal_weight=75.2783 37.9133 37.365 35.4887 28.1424 6.06046 31.3045 18.2957 7.34628 13.0088 11.335 5.91911 14.5433 5.41593 17.0121 5.19666 4.94332 3.93616 4.60674 3.35038 15.4544 7.33716 3.92834 8.11722 2.73922 13.5991 11.1298 8.00763 2.25262 5.28482
internal_count=632 198 434 185 149 64 370 220 36 150 132 67 75 65 206 26 51 41 53 38 188 88 48 100 33 74 58 42 23 28
is_linear=0
shrinkage=0.05


Tree=29
num_leaves=31
num_cat=0
split_feature=13 13 14 1 14 1 11 5 7 11 11 10 3 13 3 1 9 14 9 9 5 3 10 5 11 1 7 5 1 2
split_gain=94.4208 0.428756 0.00310175 0.00121868 0.000803905 0.000709407 0.000639217 0.000412607 0.000353942 0.000350437 0.000303018 0.000293997 0.00025275 0.000229314 0.000214705 0.000164551 0.000145671 0.000142688 0.000121709 0.000115708 0.000119796 0.000140691 0.000102929 9.09663e-05 8.45056e-05 7.3619e-05 6.56166e-05 6.42533e-05 5.92255e-05 5.84292e-05
threshold=182.50000000000003 169.00000000000003 3.5000000000000004 2517.3045000000006 3.5000000000000004 2589.1310000000008 10.500000000000002 390.01793464052292 6.5000000000000009 9.5000000000000018 9.5000000000000018 4.5000000000000009 299.4545 220.50000000000003 845.52859999999998 872.08450000000005 36.726190476190489 5.5000000000000009 75.896825396825406 12.117647058823531 210.3860338345865 500.77330000000001 2.5000000000000004 158.28817878787882 9.5000000000000018 1155.9300000000001 8.5000000000000018 251.00912962962965 741.45700000000022 46.500000000000007
decision_type=2 2 2 2 2 2 2 2 2 2 2 2 2 2 2 2 2 2 2 2 2 2 2 2 2 2 2 2 2 2
left_child=1 2 5 4 9 10 11 8 -8 -2 -1 17 -5 -6 -14 -15 -9 26 19 22 21 28 -10 -12 -17 -11 -4 -19 -21 -26
right_child=3 -3 6 12 13 -7 7 16 18 25 23 -13 14 15 -16 24 -18 27 -20 20 -22 -23 -24 -25 29 -27 -28 -29 -30 -31
leaf_value=-0.059548454244974049 0.05702259208141091 -0.023195387380211707 -0.058371636179940734 0.058680894827604357 0.058283763342608867 -0.057496202930782309 -0.057932333420939924 -0.057408033374783729 -0.057783308013909553 0.05740762215840689 -0.058876196762516209 -0.057090352067156375 0.057711443781593368 0.057971235259122317 0.058315523105332015 0.057293547442241882 -0.058108101036394869 -0.057966818543376153 -0.057542393914824241 -0.05743110470477597 -0.056820170067103298 -0.057605143874514979 -0.057136526455885933 -0.058345186037678999 0.057810615739216448 0.057775382656173491 -0.057950952912203146 -0.057409546514287202 -0.056999560576909851 0.057469847872343272
leaf_weight=1.3691339045763005 8.1367249488830584 0.92912860959768195 1.6906341463327437 2.0065483152866355 1.9443609118461598 1.0707144662737844 1.4524942561984122 1.3002165555953973 1.0067389830946987 5.0422010421752921 2.0429988056421284 1.1821610704064367 2.7776739895343781 3.5942867398262006 3.1267007738351822 2.1372549384832382 1.7341275811195371 0.85759244114160571 1.5656145215034474 0.89780652523040583 4.7479411214590064 1.3296916708350179 1.5813238322734831 1.3325848430395124 2.9931401908397675 1.86383980512619 2.0519327372312546 1.3033639788627622 6.9470893889665604 2.1698229163885117
leaf_count=14 47 7 19 10 10 13 17 16 12 28 22 15 15 19 16 12 20 10 19 11 62 16 20 15 16 10 24 16 89 12
internal_value=-1.39536e-05 -0.0567245 -0.0576029 0.0576484 0.057493 -0.0586587 -0.0573958 -0.0572657 -0.0571814 0.0572449 -0.058921 -0.0578101 0.0581961 0.0577836 0.0580313 0.0576943 -0.0578081 -0.0579542 -0.0571211 -0.0570811 -0.057024 -0.0571296 -0.0573881 -0.0586666 0.057558 0.0575069 -0.058141 -0.0576307 -0.0570489 0.0576674
internal_weight=72.1858 36.3933 35.4642 35.7926 27.8816 5.81543 29.6487 22.563 19.5287 15.0428 4.74472 7.08568 7.91092 12.8389 5.90437 10.8945 3.03434 5.90352 18.0762 16.5106 13.9225 9.17459 2.58806 3.37558 7.30022 6.90604 3.74257 2.16096 7.8449 5.16296
internal_count=632 437 430 195 154 64 366 282 246 85 51 84 41 69 31 59 36 69 229 210 178 116 32 37 40 38 43 26 100 28
is_linear=0
shrinkage=0.05


Tree=30
num_leaves=31
num_cat=0
split_feature=13 13 0 1 0 1 11 5 7 11 11 10 3 13 3 1 0 0 5 3 0 5 3 13 11 1 7 7 5 1
